id,ano,altura_mm,distancia_entre_eixos_mm,peso_potencia_kg_cv,consumo_rodoviario_gasolina_km_l,consumo_urbano_gasolina_km_l,consumo_rodoviario_alcool_km_l,consumo_urbano_alcool_km_l,velocidade_maxima_km_h,autonomia_rodoviaria_gasolina_km,porta_malas_litros,valor_fipe,infoteinimento_n,seguranca_n,conforto_n,final_rank
963,0.05865331048155638,0.03098651864200072,0.05654800489850102,-0.02793812462038688,-0.002521640814549254,-0.00832155221227585,-6.726759554678562e-9,-9.06630622165603e-9,1.1906768206759235e-4,0.02966170771413275,0.051802822637030226,-0.012971650780944304,0.05366576372256843,0.04446828235489706,0.025839331182732756,0.29999182509426486
985,0.0552137660707991,0.03097615844175095,0.05654800489850102,-0.02793812462038688,-0.0027859683169199983,-0.011767065917576204,-6.726759554678562e-9,-1.6174408056533697e-7,1.1906768206759235e-4,0.03045429074393675,0.05181347149664167,-0.009992767156885686,0.05366576372256843,0.04446828235489706,0.021935692000360392,0.2927104029289141
984,0.0552137660707991,0.03095254939790999,0.05654800489850102,-0.030739311891712303,-0.0018500456546096658,-0.009600633418104923,-5.545362876726991e-10,-9.06630622165603e-9,1.1906768206759235e-4,0.02690579992593877,0.05181347149664167,-0.010583838559061781,0.05366576372256843,0.04446828235489706,0.021935692000360392,0.28884855840535284
899,0.06759040449574374,0.0307617894849299,0.05654800489850102,-0.030739311891712303,-0.0016626465627965483,-0.0056706100469618055,-1.301683696524819e-9,-3.713740079414677e-10,1.1906768206759235e-4,0.02066642827989537,0.051802822637030226,-0.05216427476759113,0.05366576372256843,0.05914312839793813,0.025839331182732756,0.2758998958392877
951,0.05865331048155638,0.030970630707454167,0.05654800489850102,-0.030739311891712303,-0.0016626465627965483,-0.0056706100469618055,-1.301683696524819e-9,-3.713740079414677e-10,1.1906768206759235e-4,0.02066642827989537,0.051802822637030226,-0.04151616164987552,0.05366576372256843,0.04446828235489706,0.025839331182732756,0.2631449101222991
580,0.04784610871629686,0.019952186031424003,0.03514217235207109,-0.002792204125856116,-0.010095685712086223,-0.008944843836165168,-1.2371836968732704e-5,-9.06630622165603e-9,0.033600434935660436,0.02203144641219788,0.008191544193502218,-0.006287511913672537,0.0388956995620617,0.05246229067021391,0.025839331182732756,0.25582858756510585
234,0.04784610871629686,0.030220946801375527,0.05504950669051148,-0.003244163368505071,-0.0018500456546096658,-0.0012829179919594963,-0.03626943005181347,-0.03626943005181347,0.035016643812036105,0.036103321670770676,2.34323053045999e-5,-0.013061551653148006,0.0388956995620617,0.06423343500289301,0.028468670137413082,0.24388022592681385
262,0.0440086685743907,0.0029321917691984825,0.05103008964243537,-0.0018748532170198232,-0.010095685712086223,-0.004059869989254486,-0.03626943005181347,-0.03626943005181347,0.03797626995985998,0.034625716622820095,0.040797191262937814,-0.011568191672152506,0.0388956995620617,0.06423343500289301,0.028468670137413082,0.24283047183987028
995,0.05865331048155638,0.030768699591903377,0.05654800489850102,-0.027343767678596028,-0.0027859683169199983,-0.011767065917576204,-6.726759554678562e-9,-1.6174408056533697e-7,1.1906768206759235e-4,0.03045429074393675,0.05181347149664167,-0.007594542451097159,0.05366576372256843,0.0037507625525633453,0.0013448397238938945,0.23762669805860295
585,0.0552137660707991,0.030552181347980996,0.0522884690543165,-0.004931394809988717,-6.630324688771121e-4,-0.001931707035268161,-0.03626943005181347,-0.03626943005181347,0.031069048372906412,0.022627407771899824,0.046490870175239785,-0.061866012262495954,0.05366576372256843,0.05914312839793813,0.028468670137413082,0.23758829837080536
952,0.05865331048155638,0.03079507966027236,0.05654800489850102,-0.027343767678596028,-0.002521640814549254,-0.00832155221227585,-6.726759554678562e-9,-9.06630622165603e-9,1.1906768206759235e-4,0.02966170771413275,0.051802822637030226,-0.010431874505284792,0.0388956995620617,0.0037507625525633453,0.003031516994959803,0.22463912117937349
584,0.04784610871629686,0.0261617605244403,0.04159028544952831,-0.004613820231877194,-0.002521640814549254,-0.005228138010322497,-0.03626943005181347,-0.03626943005181347,0.029463421385995354,0.0029030947359681273,0.03469600790898454,-0.01302774430725361,0.05366576372256843,0.05914312839793813,0.021935692000360392,0.21947505937445094
990,0.0552137660707991,0.030768699591903377,0.05654800489850102,-0.027343767678596028,-0.0027859683169199983,-0.011767065917576204,-6.726759554678562e-9,-1.6174408056533697e-7,1.1906768206759235e-4,0.03045429074393675,0.05181347149664167,-0.008002350433444166,0.0388956995620617,0.0037507625525633453,0.0013448397238938945,0.21900928150499194
602,0.0440086685743907,0.030552181347980996,0.0522884690543165,-6.276798347587544e-4,-3.0815176976684645e-4,-1.123032201563761e-4,-0.03626943005181347,-0.03626943005181347,0.03797626995985998,0.00394744067893901,0.046490870175239785,-0.05009318859535259,0.0388956995620617,0.05914312839793813,0.028468670137413082,0.2180912143644784
965,0.05865331048155638,0.0307617894849299,0.05654800489850102,-0.03020393134707975,-0.0016626465627965483,-0.0056706100469618055,-1.301683696524819e-9,-3.713740079414677e-10,1.1906768206759235e-4,0.02066642827989537,0.051802822637030226,-0.011097447658694012,0.0388956995620617,0.0037507625525633453,0.003031516994959803,0.2155947652849755
989,0.0552137660707991,0.03072525037381138,0.05654800489850102,-0.03020393134707975,-0.0018500456546096658,-0.009600633418104923,-5.545362876726991e-10,-9.06630622165603e-9,1.1906768206759235e-4,0.02690579992593877,0.05181347149664167,-0.009270253226708847,0.0388956995620617,0.0037507625525633453,0.0013448397238938945,0.21439178901893277
543,0.05865331048155638,0.02984621724251016,0.0522884690543165,-3.023266829575544e-4,-2.0489733476814254e-4,-0.0012829179919594963,-0.03626943005181347,-0.03626943005181347,0.03797626995985998,0.002415728473534232,0.046490870175239785,-0.08078296914616019,0.05366576372256843,0.05914312839793813,0.028468670137413082,0.21383645638546436
178,0.05865331048155638,0.026799397127863753,0.04264191133248924,-0.001217215760987155,-0.003382725761701972,-0.004059869989254486,-0.03626943005181347,-0.03626943005181347,0.03797626995985998,0.019897162508279706,0.039512399408893166,-0.07697669709789934,0.05366576372256843,0.06423343500289301,0.028468670137413082,0.21367295096834685
194,0.05159713923660419,0.030283263644640106,0.054821541324331716,-0.0017243469345928706,-0.0022783563197399203,-0.0014245385243687359,-0.03626943005181347,-0.03626943005181347,0.03797626995985998,0.03292003612251515,2.34323053045999e-5,-0.06102751379908361,0.05366576372256843,0.06423343500289301,0.025839331182732756,0.21236659682003786
235,0.04784610871629686,0.030220946801375527,0.05504950669051148,-0.023602518598041983,-0.0018500456546096658,-0.0012829179919594963,-0.03626943005181347,-0.03626943005181347,0.023818232088947372,0.036103321670770676,2.34323053045999e-5,-0.013061551653148006,0.0388956995620617,0.06423343500289301,0.028468670137413082,0.21232345897418822
261,0.012371133986504135,0.0035190205127102244,0.05056076104642606,-0.0018748532170198232,-0.008692733077451656,-0.0037201701034684765,-0.03626943005181347,-0.03626943005181347,0.03797626995985998,0.0339874825991819,0.040797191262937814,-0.012410615913186021,0.0388956995620617,0.06423343500289301,0.028468670137413082,0.21157243165523498
500,0.06486546232180129,0.025915210731864396,0.047283772556324564,-2.4228313996601427e-4,-0.0027859683169199983,-0.001931707035268161,-0.03626943005181347,-0.03626943005181347,0.04551487553519927,0.0022681750859154123,0.0371997579691413,-0.08287108877264442,0.05366576372256843,0.06423343500289301,0.028468670137413082,0.20904521569469522
198,0.0552137660707991,0.026341529644918774,0.04194506306866745,-0.0011119177654873268,-0.003382725761701972,-0.004059869989254486,-0.03626943005181347,-0.03626943005181347,0.03797626995985998,0.02690579992593877,0.03861213795720407,-0.07041208689946322,0.0388956995620617,0.06423343500289301,0.028468670137413082,0.20708691081022199
229,0.04784610871629686,0.002687096747424625,0.05103008964243537,-0.0023905272509112895,-0.0027859683169199983,-0.011011437740831801,-0.03626943005181347,-0.03626943005181347,0.03797626995985998,0.0022681750859154123,0.03767853749762899,-0.00950251003273553,0.0388956995620617,0.05914312839793813,0.025839331182732756,0.20513513334726827
555,0.05159713923660419,0.029486306100568377,0.0522884690543165,-0.003749545525989173,-7.48521866758618e-4,-0.0023478643933271246,-0.03626943005181347,-0.03626943005181347,0.033600434935660436,0.023937477600145095,0.04120738711760068,-0.06553377476250356,0.0388956995620617,0.05246229067021391,0.025839331182732756,0.20439596880769823
74,0.07004359333302157,0.002767032749943061,0.051776070272070075,-9.240472876558501e-4,-0.0058074137505006425,-0.011011437740831801,-0.03626943005181347,-0.03626943005181347,0.03797626995985998,0.02966170771413275,0.03767853749762899,-0.0826832739853499,0.05366576372256843,0.06423343500289301,0.028468670137413082,0.2033060475215658
174,0.05865331048155638,0.027988498457308705,0.04264191133248924,-0.003489992125120754,-0.0058074137505006425,-0.03922998275375443,-0.03626943005181347,-0.03626943005181347,0.032105256006780464,0.026002465072443335,0.039512399408893166,-0.052737825428628066,0.05366576372256843,0.06423343500289301,0.028468670137413082,0.19946763546071497
583,0.0552137660707991,0.0261617605244403,0.04159028544952831,-0.0017243469345928706,-0.003382725761701972,-0.0034036149083786237,-0.03626943005181347,-0.03626943005181347,0.03676964674461099,0.004246308952249497,0.03469600790898454,-0.05959626696619897,0.05366576372256843,0.05914312839793813,0.028468670137413082,0.199309523234033
230,0.05159713923660419,0.0034711042389945295,0.05056076104642606,-0.0013306641776210527,-0.008692733077451656,-0.0037201701034684765,-0.03626943005181347,-0.03626943005181347,0.03797626995985998,0.0339874825991819,0.040797191262937814,-0.06464528362564795,0.0388956995620617,0.06423343500289301,0.028468670137413082,0.1990600419585562
598,0.04784610871629686,0.003060752158362101,0.05392658058626178,-0.001217215760987155,-0.006316650520770659,-0.0056706100469618055,-0.03626943005181347,-0.03626943005181347,0.03797626995985998,0.02690579992593877,0.036713303045351885,-0.04632417624560945,0.0388956995620617,0.05914312839793813,0.025839331182732756,0.19823946085684796
159,0.06187988916652537,0.027988498457308705,0.04264191133248924,-0.003489992125120754,-0.0058074137505006425,-0.03922998275375443,-0.03626943005181347,-0.03626943005181347,0.032105256006780464,0.026002465072443335,0.039512399408893166,-0.057352760386834956,0.05366576372256843,0.06423343500289301,0.028468670137413082,0.1980792791874771
499,0.06486546232180129,0.028405412592084837,0.047283772556324564,-2.4228313996601427e-4,-0.0013356646433332166,-0.0034036149083786237,-0.03626943005181347,-0.03626943005181347,0.04551487553519927,7.709740868840467e-4,0.039512399408893166,-0.08286714609389217,0.0388956995620617,0.06423343500289301,0.028468670137413082,0.19756313231435801
949,0.05865331048155638,0.029292095595931267,0.030217345300766172,-0.002792204125856116,-0.004883665511321108,-0.011767065917576204,-0.03626943005181347,-0.03626943005181347,0.004167533437379095,0.001390259956482858,0.031269404525533936,-0.009903651946610855,0.05366576372256843,0.06423343500289301,0.025839331182732756,0.19684303160085267
445,0.07004359333302157,0.028671275643658685,0.047283772556324564,-5.678591009840074e-4,-0.0027859683169199983,-0.007730210208092572,-0.03626943005181347,-0.03626943005181347,0.03797626995985998,0.0022681750859154123,0.02926410394885566,-0.08271038460889447,0.05366576372256843,0.06423343500289301,0.028468670137413082,0.1955417770519924
446,0.07004359333302157,0.028671275643658685,0.047283772556324564,-5.678591009840074e-4,-0.0027859683169199983,-0.007730210208092572,-0.03626943005181347,-0.03626943005181347,0.03797626995985998,0.0022681750859154123,0.02926410394885566,-0.0827828858967891,0.05366576372256843,0.06423343500289301,0.028468670137413082,0.19546927576409778
173,0.05865331048155638,0.027988498457308705,0.04264191133248924,-0.003489992125120754,-0.0058074137505006425,-0.03922998275375443,-0.03626943005181347,-0.03626943005181347,0.032105256006780464,0.026002465072443335,0.039512399408893166,-0.04998131453720893,0.05366576372256843,0.05914312839793813,0.025839331182732756,0.19450450079249892
175,0.05865331048155638,0.027988498457308705,0.04264191133248924,-0.003489992125120754,-0.0058074137505006425,-0.03922998275375443,-0.03626943005181347,-0.03626943005181347,0.032105256006780464,0.026002465072443335,0.039512399408893166,-0.05034288386196851,0.05366576372256843,0.05914312839793813,0.025839331182732756,0.19414293146773934
233,0.04784610871629686,0.027809104120770433,0.041231374870529955,-0.021007897418827384,-9.487830190435471e-4,-0.004423753199139515,-0.03626943005181347,-0.03626943005181347,0.023818232088947372,0.003395698795699208,0.03861213795720407,-0.007184802280391427,0.0388956995620617,0.05246229067021391,0.025839331182732756,0.19380588194342746
265,0.012371133986504135,0.027809104120770433,0.041231374870529955,-0.003489992125120754,-4.5577421283769847e-4,-0.00310915637117714,-0.03626943005181347,-0.03626943005181347,0.03054026155240869,0.0012956176523483964,0.03861213795720407,-0.010350079346438674,0.0388956995620617,0.06423343500289301,0.028468670137413082,0.19351357268293226
209,0.05159713923660419,0.0015523624446660367,0.05115951224030423,-0.003749545525989173,-0.0027859683169199983,-0.011011437740831801,-0.03626943005181347,-0.03626943005181347,0.03797626995985998,0.024921506000225465,0.03767853749762899,-0.05040462879775739,0.0388956995620617,0.06423343500289301,0.025839331182732756,0.19336335264185106
122,0.06187988916652537,0.027988498457308705,0.04264191133248924,-0.003489992125120754,-0.0058074137505006425,-0.03922998275375443,-0.03626943005181347,-0.03626943005181347,0.032105256006780464,0.026002465072443335,0.039512399408893166,-0.05460437893915724,0.05366576372256843,0.05914312839793813,0.025839331182732756,0.19310801507551958
157,0.06187988916652537,0.027988498457308705,0.04264191133248924,-0.003489992125120754,-0.0058074137505006425,-0.03922998275375443,-0.03626943005181347,-0.03626943005181347,0.032105256006780464,0.026002465072443335,0.039512399408893166,-0.056050042726952666,0.05366576372256843,0.05914312839793813,0.025839331182732756,0.19166235128772416
158,0.06187988916652537,0.027988498457308705,0.04264191133248924,-0.003489992125120754,-0.0058074137505006425,-0.03922998275375443,-0.03626943005181347,-0.03626943005181347,0.032105256006780464,0.026002465072443335,0.039512399408893166,-0.056050042726952666,0.05366576372256843,0.05914312839793813,0.025839331182732756,0.19166235128772416
232,0.04784610871629686,0.027809104120770433,0.041231374870529955,-0.021007897418827384,-9.487830190435471e-4,-0.004423753199139515,-0.03626943005181347,-0.03626943005181347,0.023818232088947372,0.003395698795699208,0.03861213795720407,-0.007184802280391427,0.0388956995620617,0.05246229067021391,0.021935692000360392,0.18990224276105508
231,0.04784610871629686,0.002974595125338806,0.05671353320457115,-0.0023905272509112895,-0.010853024550589325,-0.007170185965015494,-0.03626943005181347,-0.03626943005181347,0.03797626995985998,0.036103321670770676,0.036713303045351885,-0.06791929482093037,0.0388956995620617,0.06423343500289301,0.028468670137413082,0.18905304373348375
508,0.05865331048155638,0.0017992400343719444,0.04159028544952831,-0.006354597910348127,-0.05847904126350563,-0.05542773675629469,-0.003560344166588589,-4.473736225858626e-4,0.031069048372906412,0.031182013685618484,0.03257875317358465,-0.012319757065075496,0.05366576372256843,0.05246229067021391,0.021935692000360392,0.1883475468063105
588,0.04784610871629686,0.029486306100568377,0.0522884690543165,-6.276798347587544e-4,-2.694606708328579e-4,-7.418982694445794e-4,-0.03626943005181347,-0.03626943005181347,0.03797626995985998,0.003395698795699208,0.042000011780632826,-0.06775252729247044,0.0388956995620617,0.05246229067021391,0.025839331182732756,0.18825975965124855
532,0.05865331048155638,0.0017992400343719444,0.04159028544952831,-0.006354597910348127,-0.05847904126350563,-0.05542773675629469,-0.003560344166588589,-4.473736225858626e-4,0.031069048372906412,0.031182013685618484,0.03257875317358465,-0.012473430717283273,0.05366576372256843,0.05246229067021391,0.021935692000360392,0.18819387315410274
186,0.05159713923660419,0.002890235890372431,0.05476126757890434,-4.169698804725234e-4,-0.0058074137505006425,-0.004423753199139515,-0.03626943005181347,-0.03626943005181347,0.03797626995985998,0.03524466832948383,0.035718392741717564,-0.07842062913337113,0.0388956995620617,0.06423343500289301,0.028468670137413082,0.18817815237219937
90,0.07004359333302157,0.028118261007409058,0.04264191133248924,-0.003967299468935184,-0.0027859683169199983,-0.008944843836165168,-0.03626943005181347,-0.03626943005181347,0.032105256006780464,0.005508348585081444,0.036713303045351885,-0.08042804401206108,0.05366576372256843,0.05914312839793813,0.028468670137413082,0.18774321983034495
566,0.05159713923660419,0.02911129794640678,0.0522884690543165,-2.4228313996601427e-4,-1.546465626779776e-4,-8.30458631604818e-4,-0.03626943005181347,-0.03626943005181347,0.04504043886387784,0.0016704191039394532,0.039512399408893166,-0.07532966619172289,0.0388956995620617,0.05246229067021391,0.025839331182732756,0.18732157039944766
97,0.07004359333302157,0.030268046772947095,0.054821541324331716,-0.003244163368505071,-4.0076544656097746e-4,-0.00310915637117714,-0.03626943005181347,-0.03626943005181347,0.03797626995985998,0.005327001975114191,2.34323053045999e-5,-0.08284083021297407,0.05366576372256843,0.06423343500289301,0.028468670137413082,0.18269397903060947
100,0.07004359333302157,0.030268046772947095,0.054821541324331716,-0.003244163368505071,-4.0076544656097746e-4,-0.00310915637117714,-0.03626943005181347,-0.03626943005181347,0.03797626995985998,0.005327001975114191,2.34323053045999e-5,-0.08284083021297407,0.05366576372256843,0.06423343500289301,0.028468670137413082,0.18269397903060947
526,0.06486546232180129,0.02597758275191781,0.047283772556324564,-8.40634850999113e-4,-0.004078641714907575,-0.011767065917576204,-0.03626943005181347,-0.03626943005181347,0.03797626995985998,0.0038038111856530427,0.02642892368155662,-0.08150484236865614,0.05366576372256843,0.06423343500289301,0.028468670137413082,0.18197364636422186
539,0.05865331048155638,0.025398648486611528,0.005802979789058456,-0.006354597910348127,-0.05000437736877153,-0.05761501910533506,-8.93505170231055e-4,-0.001223954441260153,0.025541406092847607,0.028120942155518257,0.03521048789963196,-0.012780723514362852,0.05366576372256843,0.05246229067021391,0.025839331182732756,0.1818229829704305
237,0.04784610871629686,0.0028076584534916945,0.054821541324331716,-2.1643260762863753e-4,-0.0022783563197399203,-0.0034036149083786237,-0.03626943005181347,-0.03626943005181347,0.03797626995985998,0.03073478717526133,0.036713303045351885,-0.08285475903197445,0.0388956995620617,0.06423343500289301,0.028468670137413082,0.1812054504056127
553,0.0552137660707991,0.025398648486611528,0.005802979789058456,-0.006354597910348127,-0.05000437736877153,-0.05761501910533506,-8.93505170231055e-4,-0.001223954441260153,0.025541406092847607,0.028120942155518257,0.03521048789963196,-0.01137079225700175,0.05366576372256843,0.05246229067021391,0.025839331182732756,0.17979336981703434
260,0.012371133986504135,0.002687096747424625,0.05103008964243537,-0.0015837813012253904,-0.040499877456542474,-0.004059869989254486,-0.03626943005181347,-0.03626943005181347,0.03797626995985998,0.03547251764985995,0.03767853749762899,-0.011006400724362191,0.0388956995620617,0.06423343500289301,0.028468670137413082,0.17912466061106938
540,0.05865331048155638,0.025398648486611528,0.005802979789058456,-0.006354597910348127,-0.05000437736877153,-0.05761501910533506,-8.93505170231055e-4,-0.001223954441260153,0.025541406092847607,0.028120942155518257,0.03521048789963196,-0.012095448027221314,0.05366576372256843,0.05246229067021391,0.021935692000360392,0.1786046192751997
551,0.05159713923660419,0.0037656807257103937,0.0569459298447588,-3.023266829575544e-4,-4.0076544656097746e-4,-6.617075706736975e-4,-0.03626943005181347,-0.03626943005181347,0.03797626995985998,0.0018266133090194083,0.03621942535255353,-0.08220301845575526,0.05366576372256843,0.06423343500289301,0.028468670137413082,0.1785922490318064
218,0.05159713923660419,0.0010616373394478063,0.05134979825170812,-3.751231798159199e-4,-0.003717662611278734,-0.0037201701034684765,-0.03626943005181347,-0.03626943005181347,0.03797626995985998,0.027766086588409587,0.03814940456628909,-0.08063885401969513,0.0388956995620617,0.06423343500289301,0.028468670137413082,0.17850747062680136
121,0.06759040449574374,0.027988498457308705,0.04264191133248924,-0.003749545525989173,-0.0058074137505006425,-0.03922998275375443,-0.03626943005181347,-0.03626943005181347,0.032105256006780464,0.026002465072443335,0.039512399408893166,-0.07741821092424224,0.05366576372256843,0.05914312839793813,0.028468670137413082,0.17837448397346486
559,0.04784610871629686,0.0017992400343719444,0.04159028544952831,-0.0017243469345928706,-0.06261453803031393,-0.04951930268312395,-0.008222587248383258,-7.727113484067271e-5,0.03797626995985998,0.03298413047304142,0.03257875317358465,-0.011476058029441003,0.0388956995620617,0.05246229067021391,0.025839331182732756,0.17833800516099585
570,0.04784610871629686,0.0017992400343719444,0.04159028544952831,-0.0017243469345928706,-0.06261453803031393,-0.04951930268312395,-0.008222587248383258,-7.727113484067271e-5,0.03797626995985998,0.03298413047304142,0.03257875317358465,-0.011476058029441003,0.0388956995620617,0.05246229067021391,0.025839331182732756,0.17833800516099585
236,0.04784610871629686,0.0021417350511474674,0.0512868805329999,-3.370013001409609e-4,-0.003717662611278734,-0.0037201701034684765,-0.03626943005181347,-0.03626943005181347,0.03797626995985998,0.027766086588409587,0.03767853749762899,-0.07803083134770031,0.0388956995620617,0.06423343500289301,0.028468670137413082,0.17794889758249516
594,0.0440086685743907,0.016345555271107478,0.05153550525889486,-0.002792204125856116,-0.067702291248751,-0.009600633418104923,-0.03626943005181347,-0.03626943005181347,0.03797626995985998,0.03473424327994182,0.036713303045351885,-0.00793434265057804,0.0388956995620617,0.05246229067021391,0.025839331182732756,0.17794253525763806
518,0.06187988916652537,0.025398648486611528,0.005802979789058456,-0.003244163368505071,-0.040499877456542474,-0.050744949242707164,-2.575913476004297e-4,-2.575377547664514e-4,0.031069048372906412,0.02233036957359736,0.03521048789963196,-0.05058936827132537,0.05366576372256843,0.05914312839793813,0.028468670137413082,0.17737549810480377
125,0.06759040449574374,0.027988498457308705,0.04264191133248924,-0.003749545525989173,-0.0058074137505006425,-0.03922998275375443,-0.03626943005181347,-0.03626943005181347,0.032105256006780464,0.026002465072443335,0.035718392741717564,-0.0751163444088918,0.05366576372256843,0.05914312839793813,0.028468670137413082,0.17688234382163973
91,0.07004359333302157,0.02803220510062414,0.04264191133248924,-0.021007897418827384,-0.0027859683169199983,-0.007730210208092572,-0.03626943005181347,-0.03626943005181347,0.032105256006780464,0.005508348585081444,0.035718392741717564,-0.0795870685685107,0.05366576372256843,0.06423343500289301,0.028468670137413082,0.17676757134661136
617,0.012371133986504135,0.003060752158362101,0.05392658058626178,-0.003011695501774351,-0.03910704328753126,-0.005228138010322497,-0.03626943005181347,-0.03626943005181347,0.03797626995985998,0.03292003612251515,0.036713303045351885,-0.006878332761327082,0.0388956995620617,0.05914312839793813,0.025839331182732756,0.1740821653370055
545,0.05865331048155638,0.0017992400343719444,0.04159028544952831,-0.006354597910348127,-0.05847904126350563,-0.05542773675629469,-0.003560344166588589,-4.473736225858626e-4,0.031069048372906412,0.031182013685618484,0.03257875317358465,-0.012319757065075496,0.0388956995620617,0.05246229067021391,0.021935692000360392,0.17357748264580378
552,0.0552137660707991,9.700825208217128e-4,0.053766053094381414,-1.2051409612881216e-4,-0.0058074137505006425,-0.004059869989254486,-0.03626943005181347,-0.03626943005181347,0.03797626995985998,0.034588198892989884,0.03038343120908879,-0.08149347095833102,0.0388956995620617,0.05914312839793813,0.025839331182732756,0.17275583199283157
172,0.05865331048155638,0.027988498457308705,0.04264191133248924,-0.029094693522788494,-0.0020548914224634935,-0.007730210208092572,-0.03626943005181347,-0.03626943005181347,0.031069048372906412,0.0038038111856530427,0.039512399408893166,-0.05827352386888387,0.05366576372256843,0.05914312839793813,0.025839331182732756,0.1726250234161909
94,0.07004359333302157,0.02803220510062414,0.04264191133248924,-0.021007897418827384,-0.0027859683169199983,-0.007730210208092572,-0.03626943005181347,-0.03626943005181347,0.032105256006780464,0.005508348585081444,0.035718392741717564,-0.0789795103300295,0.05366576372256843,0.05914312839793813,0.028468670137413082,0.17228482298013767
447,0.07004359333302157,0.02597758275191781,0.047283772556324564,-0.003489992125120754,-0.010095685712086223,-0.0457402999940292,-0.03626943005181347,-0.03626943005181347,0.033600434935660436,0.02519632608369118,0.0371997579691413,-0.082177862366142565,0.05366576372256843,0.06423343500289301,0.028468670137413082,0.17162663619162571
581,0.04784610871629686,0.019952186031424003,0.03514217235207109,-0.02612666875046619,-0.044647412663717564,-0.011767065917576204,-2.575913476004297e-4,-4.64632702234251e-6,0.003118434852671199,0.02800359968552647,0.008191544193502218,-0.005831885689872511,0.0388956995620617,0.05246229067021391,0.025839331182732756,0.17081609655024496
542,0.05865331048155638,0.028671275643658685,0.047283772556324564,-7.636953061833417e-4,-0.004883665511321108,-0.009600633418104923,-0.03626943005181347,-0.03626943005181347,0.03797626995985998,0.004807210161633669,0.02926410394885566,-0.07481614745174979,0.0388956995620617,0.05914312839793813,0.028468670137413082,0.17056043905831575
493,0.06486546232180129,0.02442031301759256,0.005802979789058456,-0.003244163368505071,-0.040499877456542474,-0.050744949242707164,-2.575913476004297e-4,-2.575377547664514e-4,0.031069048372906412,0.02233036957359736,0.03521048789963196,-0.057977204108910524,0.05366576372256843,0.05914312839793813,0.025839331182732756,0.16936556099879524
525,0.06187988916652537,0.02597758275191781,0.047283772556324564,-0.003489992125120754,-0.002521640814549254,-0.008944843836165168,-0.03626943005181347,-0.03626943005181347,0.033600434935660436,0.001951228065560347,0.02642892368155662,-0.07622779361047466,0.05366576372256843,0.05914312839793813,0.021935692000360392,0.16814328478847532
196,0.0552137660707991,0.0029321917691984825,0.05122345239446926,-1.0673753527315415e-4,-5.173794720898234e-4,-5.238291144933733e-4,-0.03626943005181347,-0.03626943005181347,0.04641317226926073,0.0015251389525913375,0.040797191262937814,-0.08287250648374189,0.0388956995620617,0.05914312839793813,0.028468670137413082,0.16805309810744445
83,0.07004359333302157,0.028118261007409058,0.04264191133248924,-0.004023163767743848,-0.0027859683169199983,-0.008944843836165168,-0.03626943005181347,-0.03626943005181347,0.004167533437379095,0.005508348585081444,0.036713303045351885,-0.078440775108925,0.05366576372256843,0.06423343500289301,0.028468670137413082,0.16682720847022586
84,0.07004359333302157,0.028118261007409058,0.04264191133248924,-0.004023163767743848,-0.0027859683169199983,-0.008944843836165168,-0.03626943005181347,-0.03626943005181347,0.004167533437379095,0.005508348585081444,0.036713303045351885,-0.07623092312230499,0.05366576372256843,0.05914312839793813,0.028468670137413082,0.163946753851891
600,0.0440086685743907,0.0033766759347065036,0.05630218401554722,-3.751231798159199e-4,-4.0076544656097746e-4,-6.617075706736975e-4,-0.03626943005181347,-0.03626943005181347,0.03797626995985998,0.0025706044222154876,0.03469600790898454,-0.067624317636323,0.0388956995620617,0.05914312839793813,0.028468670137413082,0.16383713497611682
87,0.07004359333302157,0.028118261007409058,0.04264191133248924,-0.004023163767743848,-0.0027859683169199983,-0.008944843836165168,-0.03626943005181347,-0.03626943005181347,0.004167533437379095,0.005508348585081444,0.036713303045351885,-0.07451166983362183,0.05366576372256843,0.05914312839793813,0.025839331182732756,0.16303666818589382
863,0.07413019134012505,3.4131721226779465e-4,0.041827267975565796,-1.9529647051496192e-4,-0.002521640814549254,-0.001931707035268161,-0.03626943005181347,-0.03626943005181347,0.04586435030714775,0.01958791449218715,7.744044996868374e-4,-0.08286858452904171,0.05366576372256843,0.05914312839793813,0.025839331182732756,0.16111758017721867
573,0.04784610871629686,0.0033766759347065036,0.05630218401554722,-3.751231798159199e-4,-4.0076544656097746e-4,-6.617075706736975e-4,-0.03626943005181347,-0.03626943005181347,0.03797626995985998,0.0025706044222154876,0.03469600790898454,-0.07422499647631531,0.0388956995620617,0.05914312839793813,0.028468670137413082,0.16107389627803068
246,0.0440086685743907,0.0015266858710419027,0.05122345239446926,-1.358738721238467e-4,-8.434925041351673e-4,-1.9266816169646834e-4,-0.03626943005181347,-0.03626943005181347,0.04641317226926073,0.0029030947359681273,0.03814940456628909,-0.08162158045760191,0.0388956995620617,0.06423343500289301,0.025839331182732756,0.15786046905992293
579,0.04784610871629686,9.700825208217128e-4,0.046053075562768324,-1.2051409612881216e-4,-0.001065279269883578,-4.6493094420626516e-4,-0.03626943005181347,-0.03626943005181347,0.03797626995985998,0.021276731901881823,0.03038343120908879,-0.07731148678303225,0.0388956995620617,0.05914312839793813,0.025839331182732756,0.15688278781657225
495,0.06486546232180129,0.02442031301759256,0.005802979789058456,-0.006354597910348127,-0.05000437736877153,-0.05761501910533506,-8.93505170231055e-4,-0.001223954441260153,0.025541406092847607,0.028120942155518257,0.03521048789963196,-0.049893598408320756,0.05366576372256843,0.05914312839793813,0.025839331182732756,0.15662476217542276
957,0.05865331048155638,0.029292095595931267,0.030217345300766172,-0.002792204125856116,-0.01164809533034895,-0.04701494646380173,-0.03626943005181347,-0.03626943005181347,0.004167533437379095,0.005149704106895666,0.031269404525533936,-0.007537618804345767,0.05366576372256843,0.05914312839793813,0.025839331182732756,0.15586589192332234
564,0.05159713923660419,0.02807545864747244,0.04159028544952831,-0.0017243469345928706,-0.0018500456546096658,-0.004423753199139515,-0.03626943005181347,-0.03626943005181347,0.035913203865629,0.0019089626394210573,0.039512399408893166,-0.04507388478610257,0.004535763891111457,0.05246229067021391,0.025839331182732756,0.15582394431353472
184,0.0552137660707991,0.0017418692794149042,0.04275637406854738,-0.0018748532170198232,-0.060618464978552764,-0.0457402999940292,-0.03626943005181347,-0.03626943005181347,0.03797626995985998,0.029865919614650717,0.03257875317358465,-0.010348961984927026,0.05366576372256843,0.06423343500289301,0.028468670137413082,0.1553793807515755
437,0.07004359333302157,0.02442031301759256,0.005802979789058456,-0.006354597910348127,-0.05000437736877153,-0.05429336561326639,-3.97819623109387e-4,-2.575377547664514e-4,0.025541406092847607,0.028120942155518257,0.03521048789963196,-0.061818755949108475,0.05366576372256843,0.05914312839793813,0.025839331182732756,0.15466149137153937
434,0.07004359333302157,0.02442031301759256,0.005802979789058456,-0.006471341691682242,-0.05000437736877153,-0.05429336561326639,-3.97819623109387e-4,-2.575377547664514e-4,0.025541406092847607,0.028120942155518257,0.03521048789963196,-0.06326559565854988,0.05366576372256843,0.05914312839793813,0.025839331182732756,0.15309790788076386
494,0.06486546232180129,0.02442031301759256,0.005802979789058456,-0.006354597910348127,-0.05000437736877153,-0.05761501910533506,-8.93505170231055e-4,-0.001223954441260153,0.025541406092847607,0.028120942155518257,0.03521048789963196,-0.05343124781326104,0.05366576372256843,0.05914312839793813,0.025839331182732756,0.15308711277048248
866,0.07413019134012505,0.031082967810260473,0.05699481865071879,-0.003912007985183259,-1.7817370496505603e-4,-0.00157926533454806,-0.03626943005181347,-0.03626943005181347,5.358433473198983e-4,0.0046419833190120075,2.34323053045999e-5,-0.08284882514980908,0.05366576372256843,0.06423343500289301,0.028468670137413082,0.15271997335748294
164,0.05865331048155638,0.0017418692794149042,0.04275637406854738,-0.0018748532170198232,-0.052563554484104685,-0.05429336561326639,-0.03626943005181347,-0.03626943005181347,0.03797626995985998,0.024921506000225465,0.03257875317358465,-0.011213796263822979,0.05366576372256843,0.06423343500289301,0.028468670137413082,0.15251152214422248
623,0.010250837964928703,0.0027268462342929477,0.053766053094381414,-1.2051409612881216e-4,-0.0016626465627965483,-0.0011535259597752333,-0.03626943005181347,-0.03626943005181347,0.04641317226926073,0.02587008214975985,0.036713303045351885,-0.07225591486310363,0.0388956995620617,0.05914312839793813,0.025839331182732756,0.15188699231527694
45,0.07222204929052405,0.028118261007409058,0.04264191133248924,-0.003967299468935184,-0.004466902917879225,-0.03922998275375443,-0.03626943005181347,-0.03626943005181347,0.004167533437379095,0.02306915895247336,0.036713303045351885,-0.08124169565086128,0.05366576372256843,0.06423343500289301,0.028468670137413082,0.15185534503344414
608,0.012371133986504135,9.525785645511146e-4,0.05392658058626178,-0.001217215760987155,-0.00804606659131246,-0.0012829179919594963,-0.03626943005181347,-0.03626943005181347,0.03797626995985998,0.029347853266416105,0.03038343120908879,-0.04784262226182617,0.0388956995620617,0.05246229067021391,0.025839331182732756,0.15122748627797805
42,0.07222204929052405,0.025660831818251992,0.00646824634824941,-0.006315995340787782,-0.0058074137505006425,-0.008944843836165168,-0.03626943005181347,-0.03626943005181347,0.033600434935660436,0.0022681750859154123,0.03767853749762899,-0.07276172661820149,0.05366576372256843,0.05914312839793813,0.025839331182732756,0.1501776586301876
942,0.06486546232180129,0.031002592610086692,0.045454220707319436,-0.005975585618496799,-0.001065279269883578,-0.002835743147214555,-0.03626943005181347,-0.03626943005181347,5.358433473198983e-4,0.004560866571358043,2.34323053045999e-5,-0.05831675881216988,0.05366576372256843,0.06423343500289301,0.025839331182732756,0.14944872081999241
547,0.0552137660707991,0.0017992400343719444,0.04159028544952831,-0.0017243469345928706,-0.05501970249444997,-0.05542773675629469,-0.0012998200960552867,-7.727113484067271e-5,0.03797626995985998,0.02945347322338803,0.03257875317358465,-0.05288283045732486,0.0388956995620617,0.05246229067021391,0.025839331182732756,0.14937740145298203
131,0.06759040449574374,0.022281000084186167,0.00646824634824941,-3.751231798159199e-4,-0.006858870731013069,-0.006640771763317612,-0.03626943005181347,-0.03626943005181347,0.03797626995985998,0.005237847506336437,0.03767853749762899,-0.08275044380501823,0.05366576372256843,0.05914312839793813,0.028468670137413082,0.14934579856713262
267,0.012371133986504135,0.0012660706567175712,0.0512868805329999,-5.130228595185253e-4,-0.004466902917879225,-0.002835743147214555,-0.03626943005181347,-0.03626943005181347,0.03797626995985998,0.02945347322338803,0.03814940456628909,-0.06745759610891525,0.0388956995620617,0.05914312839793813,0.028468670137413082,0.14919860588601713
79,0.07004359333302157,0.025660831818251992,0.00646824634824941,-0.006354597910348127,-0.0058074137505006425,-0.008944843836165168,-0.03626943005181347,-0.03626943005181347,0.033600434935660436,0.0022681750859154123,0.03767853749762899,-0.07168650888380393,0.05366576372256843,0.05914312839793813,0.025839331182732756,0.14903581783752232
98,0.07004359333302157,0.030268046772947095,0.054821541324331716,-0.0032203215321156622,-4.0076544656097746e-4,-0.00310915637117714,-0.03626943005181347,-0.03626943005181347,0.004167533437379095,0.005327001975114191,2.34323053045999e-5,-0.08284083021297407,0.05366576372256843,0.06423343500289301,0.028468670137413082,0.148909084344518
99,0.07004359333302157,0.030268046772947095,0.054821541324331716,-0.0032203215321156622,-4.0076544656097746e-4,-0.00310915637117714,-0.03626943005181347,-0.03626943005181347,0.004167533437379095,0.005327001975114191,2.34323053045999e-5,-0.08284083021297407,0.05366576372256843,0.06423343500289301,0.028468670137413082,0.148909084344518
30,0.07413019134012505,0.021938177157344887,0.00646824634824941,-0.006315995340787782,-0.004883665511321108,-0.008944843836165168,-0.03626943005181347,-0.03626943005181347,0.033600434935660436,0.0017471199871367975,0.03767853749762899,-0.0805408175714087,0.05366576372256843,0.06423343500289301,0.028468670137413082,0.1487063937657104
78,0.07004359333302157,0.025660831818251992,0.00646824634824941,-0.006354597910348127,-0.0058074137505006425,-0.008944843836165168,-0.03626943005181347,-0.03626943005181347,0.033600434935660436,0.0022681750859154123,0.03767853749762899,-0.0747112042799676,0.05366576372256843,0.05914312839793813,0.028468670137413082,0.14864046139603898
46,0.07222204929052405,0.028118261007409058,0.04264191133248924,-0.003967299468935184,-0.004466902917879225,-0.03922998275375443,-0.03626943005181347,-0.03626943005181347,0.004167533437379095,0.02306915895247336,0.036713303045351885,-0.07939672525923473,0.05366576372256843,0.05914312839793813,0.028468670137413082,0.14861000882011582
81,0.07004359333302157,0.021938177157344887,0.00646824634824941,-0.006354597910348127,-0.004883665511321108,-0.008944843836165168,-0.03626943005181347,-0.03626943005181347,0.033600434935660436,0.0017471199871367975,0.03767853749762899,-0.07168650888380393,0.05366576372256843,0.05914312839793813,0.028468670137413082,0.14834519527169646
472,0.06759040449574374,0.02442031301759256,0.005802979789058456,-0.006354597910348127,-0.05000437736877153,-0.05761501910533506,-8.93505170231055e-4,-0.001223954441260153,0.025541406092847607,0.028120942155518257,0.03521048789963196,-0.06101736657965883,0.05366576372256843,0.05914312839793813,0.025839331182732756,0.14822593617802715
41,0.07222204929052405,0.025660831818251992,0.00646824634824941,-0.006315995340787782,-0.0058074137505006425,-0.008944843836165168,-0.03626943005181347,-0.03626943005181347,0.033600434935660436,0.0022681750859154123,0.03767853749762899,-0.07754258184587189,0.05366576372256843,0.05914312839793813,0.028468670137413082,0.14802614235719752
435,0.07004359333302157,0.02442031301759256,0.005802979789058456,-0.006354597910348127,-0.05000437736877153,-0.05429336561326639,-3.97819623109387e-4,-2.575377547664514e-4,0.025541406092847607,0.028120942155518257,0.03521048789963196,-0.0688244557669102,0.05366576372256843,0.05914312839793813,0.025839331182732756,0.14765579155373765
40,0.07222204929052405,0.025660831818251992,0.00646824634824941,-0.006315995340787782,-0.0058074137505006425,-0.008944843836165168,-0.03626943005181347,-0.03626943005181347,0.033600434935660436,0.0022681750859154123,0.03767853749762899,-0.07153937899860331,0.05366576372256843,0.05914312839793813,0.021935692000360392,0.1474963670674134
44,0.07222204929052405,0.021938177157344887,0.00646824634824941,-0.006315995340787782,-0.004883665511321108,-0.008944843836165168,-0.03626943005181347,-0.03626943005181347,0.033600434935660436,0.0017471199871367975,0.03767853749762899,-0.07276172661820149,0.05366576372256843,0.05914312839793813,0.025839331182732756,0.14685769710968138
47,0.07222204929052405,0.028118261007409058,0.04264191133248924,-0.003967299468935184,-0.004466902917879225,-0.03922998275375443,-0.03626943005181347,-0.03626943005181347,0.004167533437379095,0.02306915895247336,0.036713303045351885,-0.07915958977364067,0.05366576372256843,0.05914312839793813,0.025839331182732756,0.14621780535102955
132,0.06759040449574374,0.02023201628276906,0.00646824634824941,-3.751231798159199e-4,-0.006858870731013069,-0.006640771763317612,-0.03626943005181347,-0.03626943005181347,0.03797626995985998,0.01881217540014467,0.03767853749762899,-0.08275044380501823,0.0388956995620617,0.05914312839793813,0.028468670137413082,0.14610107849901702
511,0.0552137660707991,0.0037656807257103937,0.0541922329244612,-5.678591009840074e-4,-0.04327283299817539,-0.011767065917576204,-0.03626943005181347,-0.03626943005181347,0.03797626995985998,0.032789079645356774,0.00629279178819036,-0.06236177178885082,0.05366576372256843,0.06423343500289301,0.028468670137413082,0.14608930006803897
272,0.010250837964928703,0.0033766759347065036,0.05671353320457115,-3.023266829575544e-4,-4.0076544656097746e-4,-1.9266816169646834e-4,-0.03626943005181347,-0.03626943005181347,0.03797626995985998,0.023360945591661186,0.035718392741717564,-0.07951531264807826,0.0388956995620617,0.06423343500289301,0.028468670137413082,0.1460445270568927
537,0.05865331048155638,0.0016585297628096377,0.041827267975565796,-1.7197622114124158e-4,-0.0020548914224634935,-0.004812842504557115,-0.03626943005181347,-0.03626943005181347,0.04504043886387784,4.508949107658423e-4,0.03257875317358465,-0.0817894509007959,0.0388956995620617,0.05914312839793813,0.028468670137413082,0.14534867211298838
80,0.07004359333302157,0.021938177157344887,0.00646824634824941,-0.006354597910348127,-0.004883665511321108,-0.008944843836165168,-0.03626943005181347,-0.03626943005181347,0.033600434935660436,0.0017471199871367975,0.03767853749762899,-0.0747112042799676,0.05366576372256843,0.05914312839793813,0.028468670137413082,0.1453204998755328
875,0.05865331048155638,3.4131721226779465e-4,0.041827267975565796,-1.9306555163035435e-4,-0.0030725794632262627,-0.0023478643933271246,-0.03626943005181347,-0.03626943005181347,0.04586435030714775,0.021730765418472648,7.744044996868374e-4,-0.08091634440516253,0.05366576372256843,0.05914312839793813,0.021935692000360392,0.14486728609859095
43,0.07222204929052405,0.021938177157344887,0.00646824634824941,-0.006315995340787782,-0.004883665511321108,-0.008944843836165168,-0.03626943005181347,-0.03626943005181347,0.033600434935660436,0.0017471199871367975,0.03767853749762899,-0.07754258184587189,0.05366576372256843,0.05914312839793813,0.028468670137413082,0.14470618083669132
546,0.0552137660707991,0.0017992400343719444,0.04159028544952831,-0.0017243469345928706,-0.06261453803031393,-0.04951930268312395,-0.008222587248383258,-7.727113484067271e-5,0.03797626995985998,0.03298413047304142,0.03257875317358465,-0.05288283045732486,0.0388956995620617,0.05246229067021391,0.025839331182732756,0.14429889008761423
245,0.0440086685743907,0.0029321917691984825,0.05122345239446926,-1.529721839841138e-4,-0.006858870731013069,-0.0034036149083786237,-0.03626943005181347,-0.03626943005181347,0.04641317226926073,0.032722206451704726,0.040797191262937814,-0.08154862990545055,0.004535763891111457,0.05914312839793813,0.025839331182732756,0.14311215836129076
624,0.010250837964928703,0.019952186031424003,0.03514217235207109,-0.002792204125856116,-0.010095685712086223,-0.008944843836165168,-0.03626943005181347,-0.03626943005181347,0.033600434935660436,0.02203144641219788,0.008191544193502218,-0.0051935946375350345,0.0388956995620617,0.05246229067021391,0.021935692000360392,0.14289711570715086
425,0.07004359333302157,0.0021417350511474674,0.046053075562768324,-3.751231798159199e-4,-0.010095685712086223,-0.004059869989254486,-0.03626943005181347,-0.03626943005181347,0.03797626995985998,0.004170130319713129,0.004965649264332089,-0.08186929178354062,0.05366576372256843,0.06423343500289301,0.028468670137413082,0.1427794915853929
830,0.06187988916652537,0.028444678660945483,0.005802979789058456,-0.033653962693176574,-0.00937574378145912,-0.05429336561326639,-2.160425395877904e-5,-2.575377547664514e-4,5.358433473198983e-4,0.002415728473534232,0.0077844948333574,-0.006612255493195241,0.05366576372256843,0.05914312839793813,0.025839331182732756,0.1412973679841576
461,0.06759040449574374,0.0021417350511474674,0.046053075562768324,-3.751231798159199e-4,-0.010095685712086223,-0.004059869989254486,-0.03626943005181347,-0.03626943005181347,0.03797626995985998,0.004170130319713129,0.004965649264332089,-0.0815747006559849,0.05366576372256843,0.06423343500289301,0.028468670137413082,0.14062089387567078
523,0.06486546232180129,0.028671275643658685,0.047283772556324564,-0.003489992125120754,-0.006858870731013069,-0.04951930268312395,-0.03626943005181347,-0.03626943005181347,0.033600434935660436,0.020513085428049967,0.02926410394885566,-0.0685565258123842,0.0388956995620617,0.05246229067021391,0.025839331182732756,0.14043190479409007
595,0.0440086685743907,0.0017992400343719444,0.04159028544952831,-6.928366842067793e-4,-0.004466902917879225,-0.001931707035268161,-0.03626943005181347,-0.03626943005181347,0.03797626995985998,0.0015251389525913375,0.03257875317358465,-0.052715675359023946,0.0388956995620617,0.05246229067021391,0.021935692000360392,0.14042605627695787
488,0.06486546232180129,0.0021417350511474674,0.046053075562768324,-3.751231798159199e-4,-0.010095685712086223,-0.004059869989254486,-0.03626943005181347,-0.03626943005181347,0.03797626995985998,0.004170130319713129,0.004965649264332089,-0.08122355795340948,0.05366576372256843,0.06423343500289301,0.028468670137413082,0.13824709440430377
597,0.0440086685743907,7.199386039813698e-4,0.04159028544952831,-7.636953061833417e-4,-0.010853024550589325,-0.001931707035268161,-0.03626943005181347,-0.03626943005181347,0.03797626995985998,0.005600542400400201,0.02870043877136904,-0.058466066651428915,0.0388956995620617,0.05914312839793813,0.025839331182732756,0.13792094925516551
162,0.06187988916652537,5.160164032819144e-4,0.03596104388095171,-1.9306555163035435e-4,-0.003382725761701972,-0.005228138010322497,-0.03626943005181347,-0.03626943005181347,0.04504043886387784,6.087318238931467e-4,0.030938273446441202,-0.08275925571528947,0.05366576372256843,0.04446828235489706,0.028468670137413082,0.13744506465727852
788,0.075778796796166,0.029564252600198772,0.005802979789058456,-0.03259936928373419,-0.044647412663717564,-0.05761501910533506,-6.02172327652304e-4,-0.001223954441260153,5.358433473198983e-4,0.0014230326861288905,0.0371997579691413,-0.01099025012366813,0.05366576372256843,0.05914312839793813,0.021935692000360392,0.13737106936351287
557,0.05159713923660419,0.02087455808891505,0.005802979789058456,-0.005264101239533651,-0.051295825008642985,-0.04315680568847464,-0.0012998200960552867,-2.027627594158294e-5,0.02724550336987624,0.0024665304498735392,0.031269404525533936,-0.006289728263039614,0.0388956995620617,0.04446828235489706,0.021935692000360392,0.13722923280549282
811,0.07004359333302157,0.028444678660945483,0.005802979789058456,-0.033653962693176574,-0.00937574378145912,-0.05429336561326639,-2.160425395877904e-5,-2.575377547664514e-4,5.358433473198983e-4,0.002415728473534232,0.0077844948333574,-0.007752950978406436,0.05366576372256843,0.05246229067021391,0.01705782403439704,0.13285803178938266
609,0.012371133986504135,0.02807545864747244,0.04159028544952831,-0.005975585618496799,-0.010095685712086223,-0.008944843836165168,-0.03626943005181347,-0.03626943005181347,0.0039390582744234385,0.02800359968552647,0.039512399408893166,-0.006878332761327082,0.004535763891111457,0.05246229067021391,0.025839331182732756,0.13189601316470387
923,0.06486546232180129,0.029292095595931267,0.030217345300766172,-0.028522002226389193,-0.008692733077451656,-0.04701494646380173,-0.03626943005181347,-0.03626943005181347,0.0021434142402626814,0.0017084244768482456,0.031269404525533936,-0.009561555434883674,0.05366576372256843,0.05914312839793813,0.025839331182732756,0.13181427245822971
822,0.06486546232180129,0.028444678660945483,0.005802979789058456,-0.033653962693176574,-0.00937574378145912,-0.05429336561326639,-2.160425395877904e-5,-2.575377547664514e-4,5.358433473198983e-4,0.002415728473534232,0.0077844948333574,-0.0056120299971024416,0.05366576372256843,0.05246229067021391,0.01705782403439704,0.12982082175946638
582,0.04784610871629686,0.02807545864747244,0.04159028544952831,-0.030739311891712303,-0.0020548914224634935,-0.005228138010322497,-0.03626943005181347,-0.03626943005181347,0.004167533437379095,0.002173775686134775,0.039512399408893166,-0.007536475950295902,0.004535763891111457,0.05246229067021391,0.025839331182732756,0.12810526971134165
577,0.04784610871629686,8.065123299767055e-4,0.041827267975565796,-1.7197622114124158e-4,-0.0030725794632262627,-0.0014245385243687359,-0.03626943005181347,-0.03626943005181347,0.03797626995985998,8.540552837439551e-4,0.02870043877136904,-0.08039048532993236,0.0388956995620617,0.05914312839793813,0.028468670137413082,0.1269197114919297
496,0.06486546232180129,0.018128685413000934,0.005802979789058456,-0.0010143365881511938,-0.010853024550589325,-0.0418524375246469,-0.03626943005181347,-0.03626943005181347,0.03797626995985998,0.01958791449218715,0.031489366795311134,-0.06437744882902663,0.05366576372256843,0.05914312839793813,0.025839331182732756,0.12586279447841728
456,0.06759040449574374,0.0015523624446660367,0.005802979789058456,-8.40634850999113e-4,-0.04735929540356472,-0.0025823262657771527,-0.03626943005181347,-0.03626943005181347,0.03797626995985998,0.021579806117596283,0.026998476047003825,-0.05684479514212279,0.05366576372256843,0.06423343500289301,0.025839331182732756,0.12507291699603182
255,0.012371133986504135,0.0017418692794149042,0.04135146597246225,-0.005264101239533651,-0.051295825008642985,-0.011767065917576204,-0.03626943005181347,-0.03626943005181347,0.035913203865629,0.028804844187413227,0.03257875317358465,-0.00410428353530185,0.0388956995620617,0.05246229067021391,0.025839331182732756,0.12498845607533489
168,0.05865331048155638,8.529659547395892e-4,0.04320933636547991,-0.0020357526035869973,-0.04735929540356472,-0.04951930268312395,-0.03626943005181347,-0.03626943005181347,0.03797626995985998,0.021579806117596283,0.03257875317358465,-0.04507450031218287,0.05366576372256843,0.06423343500289301,0.028468670137413082,0.12469059980960584
969,0.0552137660707991,3.4131721226779465e-4,0.041827267975565796,-1.9306555163035435e-4,-5.173794720898234e-4,-0.001035518488159756,-0.03626943005181347,-0.03626943005181347,0.04586435030714775,8.540552837439551e-4,7.744044996868374e-4,-0.08120134086463385,0.05366576372256843,0.05914312839793813,0.021935692000360392,0.12413358098993746
592,0.0440086685743907,0.0017992400343719444,0.04159028544952831,-0.006354597910348127,-0.06355703199290487,-0.050744949242707164,-0.03880543076427689,-1.4343616711986784e-4,0.031069048372906412,0.03334969119119693,0.03257875317358465,-0.00619748156837284,0.0388956995620617,0.04446828235489706,0.021935692000360392,0.12389243306756835
591,0.0440086685743907,0.0017992400343719444,0.04159028544952831,-0.006354597910348127,-0.06355703199290487,-0.050744949242707164,-0.03880543076427689,-1.4343616711986784e-4,0.031069048372906412,0.03334969119119693,0.03257875317358465,-0.006604775905379354,0.0388956995620617,0.04446828235489706,0.021935692000360392,0.12348513873056183
554,0.0552137660707991,0.02807545864747244,0.04159028544952831,-0.030739311891712303,-0.0016626465627965483,-0.011767065917576204,-0.03626943005181347,-0.03626943005181347,0.004167533437379095,0.001633095875486232,0.039512399408893166,-0.012896427428728444,0.004535763891111457,0.05246229067021391,0.025839331182732756,0.12342561272917603
407,0.06759040449574374,0.0019802910470052833,0.046053075562768324,-0.021659733233651803,-0.05847904126350563,-0.05542773675629469,-0.003560344166588589,-4.473736225858626e-4,0.031069048372906412,0.029966512283121628,0.004965649264332089,-0.06257740543861712,0.05366576372256843,0.06423343500289301,0.025839331182732756,0.12321187645282798
257,0.012371133986504135,0.002011798659885122,0.04135146597246225,-0.005975585618496799,-0.04869142243247283,-0.011011437740831801,-0.03626943005181347,-0.03626943005181347,0.032105256006780464,0.027402843243452824,0.0336485798033198,-0.005308557644519178,0.0388956995620617,0.05246229067021391,0.025839331182732756,0.1225625355474654
408,0.06759040449574374,0.0019802910470052833,0.046053075562768324,-0.021659733233651803,-0.05847904126350563,-0.05542773675629469,-0.003560344166588589,-4.473736225858626e-4,0.031069048372906412,0.029966512283121628,0.004965649264332089,-0.0669759481317688,0.05366576372256843,0.06423343500289301,0.028468670137413082,0.12144267271435663
165,0.05865331048155638,0.0017418692794149042,0.04275637406854738,-0.005264101239533651,-0.07092017074061938,-0.06667815518117301,-0.03626943005181347,-0.03626943005181347,0.033600434935660436,0.031521637468078144,0.03257875317358465,-0.011146609196296469,0.05366576372256843,0.06423343500289301,0.025839331182732756,0.11804301285378664
565,0.05159713923660419,0.02807545864747244,0.04159028544952831,-0.030739311891712303,-0.0013356646433332166,-0.004812842504557115,-0.03626943005181347,-0.03626943005181347,0.004167533437379095,0.0012063214953592482,0.039512399408893166,-0.009950623482484102,0.004535763891111457,0.04446828235489706,0.021935692000360392,0.11771157329589169
817,0.06759040449574374,0.00452012899016933,0.004624516779142552,-0.029094693522788494,-0.04735929540356472,-0.05429336561326639,-3.97819623109387e-4,-1.4343616711986784e-4,0.0011547398225101643,7.513060868777117e-4,0.04120738711760068,-0.0057805949628997695,0.05366576372256843,0.05914312839793813,0.021935692000360392,0.1175238621201625
169,0.05865331048155638,8.529659547395892e-4,0.04320933636547991,-0.0020357526035869973,-0.04735929540356472,-0.04951930268312395,-0.03626943005181347,-0.03626943005181347,0.03797626995985998,0.021579806117596283,0.03257875317358465,-0.04507450031218287,0.05366576372256843,0.05914312839793813,0.025839331182732756,0.11697095424997063
593,0.0440086685743907,0.016345555271107478,0.05153550525889486,-0.025505557191904737,-0.07034762417297673,-0.04445351525649847,-0.03626943005181347,-0.03626943005181347,0.027806810188818976,0.035409149173392065,0.036713303045351885,-0.006604775905379354,0.0388956995620617,0.05914312839793813,0.025839331182732756,0.11624681802430233
182,0.0552137660707991,0.0017418692794149042,0.04275637406854738,-0.005264101239533651,-0.07092017074061938,-0.06667815518117301,-0.03626943005181347,-0.03626943005181347,0.033600434935660436,0.031521637468078144,0.03257875317358465,-0.01029431449384296,0.05366576372256843,0.06423343500289301,0.025839331182732756,0.11545576314548288
607,0.010250837964928703,0.0017992400343719444,0.04159028544952831,-6.928366842067793e-4,-0.004466902917879225,-0.001931707035268161,-0.03626943005181347,-0.03626943005181347,0.03797626995985998,0.0015251389525913375,0.03257875317358465,-0.04394896707223664,0.0388956995620617,0.05246229067021391,0.021935692000360392,0.11543493395428318
562,0.05159713923660419,0.025398648486611528,0.005802979789058456,-0.003244163368505071,-0.06261453803031393,-0.050744949242707164,-0.03626943005181347,-0.03626943005181347,0.031069048372906412,0.03373634326966064,0.03521048789963196,-0.011212277712166995,0.05366576372256843,0.05246229067021391,0.025839331182732756,0.11442724417266818
599,0.012371133986504135,9.525785645511146e-4,0.05392658058626178,-3.023266829575544e-4,-4.0076544656097746e-4,-4.119805668324205e-4,-0.03626943005181347,-0.03626943005181347,0.03797626995985998,3.8078062430138576e-4,0.03038343120908879,-0.07451634046363735,0.0388956995620617,0.05914312839793813,0.028468670137413082,0.11432799976436486
644,0.006803806606082107,0.019952186031424003,0.03514217235207109,-0.002792204125856116,-0.008692733077451656,-0.0056706100469618055,-0.03626943005181347,-0.03626943005181347,0.003118434852671199,0.020051491177048842,0.008191544193502218,-0.003974908493946594,0.0388956995620617,0.05246229067021391,0.021935692000360392,0.11288400159759235
290,0.010250837964928703,0.0012228093023376842,0.041709007806112294,-8.40634850999113e-4,-0.010095685712086223,-0.006141191805153655,-0.03626943005181347,-0.03626943005181347,0.03797626995985998,0.01865672120933878,0.03257875317358465,-0.0452735553844072,0.0388956995620617,0.04446828235489706,0.021935692000360392,0.11280414547720811
189,0.05865331048155638,0.023819909182663822,0.0025725130678296735,-0.004311160564197412,-0.006858870731013069,-0.03922998275375443,-0.03626943005181347,-0.03626943005181347,0.030004906563601233,0.01881217540014467,0.03038343120908879,-0.01212584870230936,0.004535763891111457,0.05246229067021391,0.025839331182732756,0.11201890879404149
647,0.010250837964928703,0.029142377326854,0.0522884690543165,-0.0011119177654873268,-9.487830190435471e-4,-4.119805668324205e-4,-0.03626943005181347,-0.03626943005181347,0.03797626995985998,0.02626477824576629,0.04120738711760068,-0.012898466722801672,8.035796593568362e-4,9.123488321248996e-4,5.127176804015479e-4,0.11144875766341754
944,0.0552137660707991,3.4131721226779465e-4,0.041827267975565796,-2.4228313996601427e-4,-5.173794720898234e-4,-0.001035518488159756,-0.03626943005181347,-0.03626943005181347,0.03797626995985998,8.540552837439551e-4,7.744044996868374e-4,-0.08077672409315081,0.05366576372256843,0.05246229067021391,0.021935692000360392,0.10994006209807285
67,0.07004359333302157,0.0017703716743194809,0.04275637406854738,-0.002207495361624611,-0.044647412663717564,-0.04951930268312395,-0.03626943005181347,-0.03626943005181347,0.03797626995985998,0.019897162508279706,0.03038343120908879,-0.07042986374053821,0.05366576372256843,0.06423343500289301,0.028468670137413082,0.10985213706336017
568,0.04784610871629686,0.0015783822532102342,0.007186185702081913,-0.003011695501774351,-0.04601044352023751,-0.040542717927563324,-6.02172327652304e-4,-4.64632702234251e-6,0.035016643812036105,0.0020824814783157422,0.004726946330514812,-0.011945798659614485,0.0388956995620617,0.04446828235489706,0.028468670137413082,0.1081519260829632
620,0.010250837964928703,6.167920084404285e-4,0.046441539673026055,-3.751231798159199e-4,-0.0027859683169199983,-4.119805668324205e-4,-0.03626943005181347,-0.03626943005181347,0.03797626995985998,0.005508348585081444,0.03038343120908879,-0.07356105934070867,0.0388956995620617,0.05914312839793813,0.028468670137413082,0.10801172598993437
275,0.010250837964928703,0.0014273542883752456,0.041709007806112294,-0.0010143365881511938,-0.010095685712086223,-0.005228138010322497,-0.03626943005181347,-0.03626943005181347,0.03797626995985998,0.01865672120933878,0.0336485798033198,-0.052425475186422356,0.0388956995620617,0.04446828235489706,0.021935692000360392,0.10766594934864475
216,0.05159713923660419,0.023029032127367465,0.0025725130678296735,-0.0010143365881511938,-0.004883665511321108,-0.0034036149083786237,-0.03626943005181347,-0.03626943005181347,0.03797626995985998,0.00394744067893901,0.004542194134023114,-0.05519663412122609,0.0388956995620617,0.05246229067021391,0.028468670137413082,0.10645413834160816
652,0.005448273595286112,0.029142377326854,0.0522884690543165,-0.004023163767743848,-0.001193913766268692,-5.238291144933733e-4,-0.03626943005181347,-0.03626943005181347,0.033600434935660436,0.028237333934254552,0.04120738711760068,-0.007527337745559607,8.035796593568362e-4,9.123488321248996e-4,5.127176804015479e-4,0.1063458176381631
154,0.06187988916652537,8.529659547395892e-4,0.04320933636547991,-0.0020357526035869973,-0.04735929540356472,-0.04951930268312395,-0.03626943005181347,-0.03626943005181347,0.03797626995985998,0.021579806117596283,0.03257875317358465,-0.058978298571125264,0.05366576372256843,0.05914312839793813,0.025839331182732756,0.10629373467599723
112,0.06759040449574374,0.0017703716743194809,0.04275637406854738,-0.002207495361624611,-0.052563554484104685,-0.05429336561326639,-0.03626943005181347,-0.03626943005181347,0.03797626995985998,0.024921506000225465,0.03038343120908879,-0.06405756435268836,0.05366576372256843,0.06423343500289301,0.028468670137413082,0.10610538635534839
606,0.0440086685743907,0.0017992400343719444,0.04159028544952831,-0.0015837813012253904,-0.06532885448285926,-0.051950350775608896,-0.03626943005181347,-0.03626943005181347,0.03797626995985998,0.0339874825991819,0.03257875317358465,-0.00793434265057804,0.0388956995620617,0.05246229067021391,0.021935692000360392,0.10589819270965496
789,0.07413019134012505,0.02732805932970285,0.003681481071191411,-0.03216507640953187,-0.041889403776303354,-0.05653539121892933,-2.575913476004297e-4,-0.001223954441260153,0.0014299059753271595,0.001122157114769333,0.0038568327568004692,-0.010332849435619587,0.05366576372256843,0.05914312839793813,0.021935692000360392,0.1038889450795385
225,0.04784610871629686,0.0017418692794149042,0.04135146597246225,-0.02612666875046619,-0.03910704328753126,-0.0418524375246469,-0.03626943005181347,-0.03626943005181347,0.025541406092847607,0.024783003269945952,0.03257875317358465,-0.006110172594351762,0.0388956995620617,0.05246229067021391,0.021935692000360392,0.10140110647656517
226,0.04784610871629686,0.0017418692794149042,0.04135146597246225,-0.02612666875046619,-0.03910704328753126,-0.0418524375246469,-0.03626943005181347,-0.03626943005181347,0.025541406092847607,0.024783003269945952,0.03257875317358465,-0.006110172594351762,0.0388956995620617,0.05246229067021391,0.021935692000360392,0.10140110647656517
468,0.06759040449574374,0.0013105658162567847,0.0074120113416649815,-2.1643260762863753e-4,-0.0022783563197399203,-0.007170185965015494,-0.03626943005181347,-0.03626943005181347,0.04504043886387784,5.31821276312975e-5,0.00629279178819036,-0.08286222118670793,0.05366576372256843,0.05914312839793813,0.025839331182732756,0.1012815615538854
922,0.06486546232180129,0.029292095595931267,0.030217345300766172,-0.03226261872190496,-0.008692733077451656,-0.04701494646380173,-0.03626943005181347,-0.03626943005181347,0.0017572776483097444,0.0017084244768482456,0.031269404525533936,-0.042015865896247576,0.05366576372256843,0.06423343500289301,0.025839331182732756,0.100323515514352
829,0.06187988916652537,0.02732805932970285,0.0036363278820008356,-0.03126117727409701,-0.044647412663717564,-0.05542773675629469,-1.6345549895436056e-4,-4.473736225858626e-4,5.358433473198983e-4,0.005693750627707695,0.0038568327568004692,-0.005626261085760867,0.05366576372256843,0.05914312839793813,0.021935692000360392,0.10010187032951372
515,0.06187988916652537,0.0013105658162567847,0.0074120113416649815,-2.1643260762863753e-4,-0.0022783563197399203,-0.007170185965015494,-0.03626943005181347,-0.03626943005181347,0.04504043886387784,5.31821276312975e-5,0.00629279178819036,-0.08145971500854235,0.05366576372256843,0.05914312839793813,0.028468670137413082,0.09960289135751293
183,0.0552137660707991,0.0017418692794149042,0.04275637406854738,-0.005264101239533651,-0.07092017074061938,-0.06667815518117301,-0.03626943005181347,-0.03626943005181347,0.033600434935660436,0.031521637468078144,0.03257875317358465,-0.007735719501538117,0.0388956995620617,0.06423343500289301,0.021935692000360392,0.09934065479490863
208,0.05159713923660419,0.002011798659885122,0.04135146597246225,-0.028522002226389193,-0.0020548914224634935,-0.03922998275375443,-0.03626943005181347,-0.03626943005181347,0.00545894114024487,9.445419637296748e-4,0.0336485798033198,-0.006633694019389667,0.0388956995620617,0.05246229067021391,0.021935692000360392,0.09932671848325818
906,0.06759040449574374,0.029292095595931267,0.030217345300766172,-0.03226261872190496,-0.008692733077451656,-0.04701494646380173,-0.03626943005181347,-0.03626943005181347,0.0017572776483097444,0.0017084244768482456,0.031269404525533936,-0.046457663016193224,0.05366576372256843,0.06423343500289301,0.025839331182732756,0.0986066605683488
897,0.07004359333302157,0.029349384380157204,0.030217345300766172,-0.03226261872190496,-0.008692733077451656,-0.0457402999940292,-0.03626943005181347,-0.03626943005181347,0.0017572776483097444,0.0033309479301912998,0.031269404525533936,-0.05208888419762815,0.05366576372256843,0.06423343500289301,0.025839331182732756,0.09838308693153322
563,0.05159713923660419,0.025398648486611528,0.005802979789058456,-0.006354597910348127,-0.06446188740751085,-0.06163175119773668,-0.03626943005181347,-0.03626943005181347,0.025541406092847607,0.03430596459937791,0.03521048789963196,-0.009429666668399882,0.05366576372256843,0.05246229067021391,0.025839331182732756,0.09540724839202426
561,0.05865331048155638,0.0013105658162567847,0.0074120113416649815,-2.708366345127856e-4,-0.003717662611278734,-0.006640771763317612,-0.03626943005181347,-0.03626943005181347,0.04359777564407444,1.2759488245504578e-4,0.00629279178819036,-0.0802567349267244,0.05366576372256843,0.05914312839793813,0.028468670137413082,0.09524674617265716
815,0.06759040449574374,0.0041851790301344356,0.004624516779142552,-0.028522002226389193,-0.05000437736877153,-0.05653539121892933,-8.93505170231055e-4,-4.473736225858626e-4,0.0011547398225101643,9.683764916736708e-4,0.026998476047003825,-0.0045417608077172635,0.05366576372256843,0.05914312839793813,0.01705782403439704,0.09444399840648776
548,0.0552137660707991,9.016296088620152e-4,0.04159028544952831,-0.0020357526035869973,-0.05000437736877153,-0.0418524375246469,-0.03626943005181347,-0.03626943005181347,0.03797626995985998,0.026651968476411044,0.03257875317358465,-0.051331775534982436,0.0388956995620617,0.05246229067021391,0.025839331182732756,0.09434679101843867
924,0.06486546232180129,0.029292095595931267,0.030217345300766172,-0.028522002226389193,-0.044647412663717564,-0.051950350775608896,-0.03626943005181347,-0.03626943005181347,0.0021434142402626814,0.0046419833190120075,0.031269404525533936,-0.00963527291526958,0.05366576372256843,0.05914312839793813,0.025839331182732756,0.0937840299219345
263,0.012371133986504135,0.025128702701775193,0.0025725130678296735,-0.005264101239533651,-0.004883665511321108,-0.011767065917576204,-0.03626943005181347,-0.03626943005181347,0.028363895428097283,0.00394744067893901,0.03038343120908879,-0.005383866206091985,0.004535763891111457,0.06423343500289301,0.021935692000360392,0.09363444898844905
638,0.006803806606082107,0.028950073411547185,0.0522884690543165,-3.751231798159199e-4,-6.356579513296098e-5,-6.373704425154635e-5,-0.03626943005181347,-0.03626943005181347,0.044411587923133725,4.6360763018309787e-4,0.04120738711760068,-0.01135410644000124,8.035796593568362e-4,9.123488321248996e-4,5.127176804015479e-4,0.09195818535191796
171,0.05865331048155638,0.023819909182663822,0.0025725130678296735,-0.030739311891712303,-0.04735929540356472,-0.059685620198560455,-2.575913476004297e-4,-0.001223954441260153,0.0029355528201741076,0.03064230294345859,0.03038343120908879,-0.009189438882696204,0.004535763891111457,0.05914312839793813,0.025839331182732756,0.09007003101115944
150,0.06187988916652537,0.0019491686725178255,0.04275637406854738,-0.006354597910348127,-0.06532885448285926,-0.06255630664968871,-0.03626943005181347,-0.03626943005181347,0.033600434935660436,0.027031400559590836,0.03521048789963196,-0.05198787938997704,0.05366576372256843,0.06423343500289301,0.028468670137413082,0.09002912562884825
630,0.006803806606082107,0.02123468452884527,0.05630218401554722,-0.0023905272509112895,-0.005330119050885539,-0.00157926533454806,-0.03626943005181347,-0.03626943005181347,0.03797626995985998,0.02505928429051126,0.0281346625968619,-0.006334068865137887,8.035796593568362e-4,9.123488321248996e-4,5.127176804015479e-4,0.08956669756448131
521,0.06187988916652537,0.019764250480642287,0.005802979789058456,-0.005975585618496799,-0.06163482075333612,-0.06163175119773668,-0.003560344166588589,-7.520847867853249e-4,0.025541406092847607,0.018190068530799287,0.005213102470059911,-0.05202430031024131,0.05366576372256843,0.05914312839793813,0.025839331182732756,0.08946103299998741
185,0.0552137660707991,0.0019491686725178255,0.04275637406854738,-0.006354597910348127,-0.06532885448285926,-0.06255630664968871,-0.03626943005181347,-0.03626943005181347,0.032611894109504706,0.027031400559590836,0.03521048789963196,-0.04236224624521993,0.05366576372256843,0.06423343500289301,0.025839331182732756,0.08937075589704305
578,0.04784610871629686,8.529659547395892e-4,0.041827267975565796,-3.370013001409609e-4,-0.0030725794632262627,-0.0014245385243687359,-0.03626943005181347,-0.03626943005181347,0.03797626995985998,8.540552837439551e-4,9.13523446564866e-4,-0.08111080650389013,0.0388956995620617,0.05246229067021391,0.025839331182732756,0.08898372685652639
310,0.005448273595286112,0.02771664168856938,0.041231374870529955,-0.003244163368505071,-0.004883665511321108,-0.004423753199139515,-0.03626943005181347,-0.03626943005181347,0.03054026155240869,0.030262220067369776,0.03861213795720407,-0.0033051767382760115,8.035796593568362e-4,9.123488321248996e-4,5.127176804015479e-4,0.08764393698238263
810,0.07004359333302157,0.02732805932970285,0.0036363278820008356,-0.03126117727409701,-0.044647412663717564,-0.05542773675629469,-1.6345549895436056e-4,-4.473736225858626e-4,5.358433473198983e-4,0.005693750627707695,0.0038568327568004692,-0.006747284610582374,0.05366576372256843,0.04446828235489706,0.01705782403439704,0.08759183696218398
533,0.0552137660707991,0.0037656807257103937,0.0541922329244612,-0.0020357526035869973,-0.05501970249444997,-0.05542773675629469,-0.03626943005181347,-0.03626943005181347,0.03797626995985998,0.035364591243973766,0.00629279178819036,-0.06407488400545737,0.05366576372256843,0.06423343500289301,0.025839331182732756,0.08744692665777304
227,0.04784610871629686,9.353369767518408e-4,0.04159028544952831,-0.028522002226389193,-0.0020548914224634935,-0.03922998275375443,-0.03626943005181347,-0.03626943005181347,0.007011033418502888,9.445419637296748e-4,0.03257875317358465,-0.0067629617430545715,0.0388956995620617,0.04446828235489706,0.021935692000360392,0.08709703536642475
228,0.04784610871629686,9.353369767518408e-4,0.04159028544952831,-0.028522002226389193,-0.0020548914224634935,-0.03922998275375443,-0.03626943005181347,-0.03626943005181347,0.007011033418502888,9.445419637296748e-4,0.03257875317358465,-0.0067629617430545715,0.0388956995620617,0.04446828235489706,0.021935692000360392,0.08709703536642475
148,0.06187988916652537,0.0017418692794149042,0.04275637406854738,-0.005264101239533651,-0.07092017074061938,-0.06667815518117301,-0.03626943005181347,-0.03626943005181347,0.033600434935660436,0.031521637468078144,0.03257875317358465,-0.04714058924968591,0.05366576372256843,0.06423343500289301,0.025839331182732756,0.08527561148536619
166,0.05865331048155638,0.0019491686725178255,0.04275637406854738,-0.006354597910348127,-0.06532885448285926,-0.06255630664968871,-0.03626943005181347,-0.03626943005181347,0.032611894109504706,0.027031400559590836,0.03521048789963196,-0.04525694706438336,0.05366576372256843,0.05914312839793813,0.025839331182732756,0.08482529288368201
155,0.06187988916652537,0.023819909182663822,0.0025725130678296735,-0.030739311891712303,-0.04735929540356472,-0.059685620198560455,-2.575913476004297e-4,-0.001223954441260153,0.0029355528201741076,0.03064230294345859,0.03038343120908879,-0.011213458795715697,0.004535763891111457,0.05246229067021391,0.025839331182732756,0.08459175205538472
509,0.06187988916652537,0.0019802910470052833,0.046053075562768324,-0.0014527038572733533,-0.060618464978552764,-0.03922998275375443,-0.03626943005181347,-0.03626943005181347,0.03797626995985998,0.031094591017609946,0.004965649264332089,-0.06691289738936085,0.05366576372256843,0.05914312839793813,0.028468670137413082,0.0844744191934523
69,0.07004359333302157,8.529659547395892e-4,0.04320933636547991,-0.002207495361624611,-0.04735929540356472,-0.04951930268312395,-0.03626943005181347,-0.03626943005181347,0.03797626995985998,0.0037334321605630503,0.030938273446441202,-0.07792869143466383,0.05366576372256843,0.06423343500289301,0.028468670137413082,0.08356809509637578
519,0.06187988916652537,0.019764250480642287,0.005802979789058456,-0.005975585618496799,-0.06163482075333612,-0.06163175119773668,-0.003560344166588589,-7.520847867853249e-4,0.025541406092847607,0.018190068530799287,0.005213102470059911,-0.05798962785318212,0.05366576372256843,0.05914312839793813,0.025839331182732756,0.0834957054570466
498,0.06486546232180129,0.019764250480642287,0.005802979789058456,-0.005975585618496799,-0.06163482075333612,-0.06163175119773668,-0.003560344166588589,-7.520847867853249e-4,0.025541406092847607,0.018190068530799287,0.005213102470059911,-0.0616109192998173,0.05366576372256843,0.05914312839793813,0.025839331182732756,0.08285998716568733
285,0.010250837964928703,0.030220946801375527,0.05504950669051148,-0.003244163368505071,-0.0018500456546096658,-0.0012829179919594963,-0.03626943005181347,-0.03626943005181347,0.035016643812036105,0.036103321670770676,2.34323053045999e-5,-0.00719694116176291,8.035796593568362e-4,9.123488321248996e-4,5.127176804015479e-4,0.0827804071363463
163,0.05865331048155638,0.0017418692794149042,0.04275637406854738,-0.005264101239533651,-0.07092017074061938,-0.06667815518117301,-0.03626943005181347,-0.03626943005181347,0.033600434935660436,0.031521637468078144,0.03257875317358465,-0.04164062914050295,0.05366576372256843,0.05914312839793813,0.025839331182732756,0.08245868630462529
823,0.06187988916652537,0.0041851790301344356,0.004624516779142552,-0.028522002226389193,-0.05000437736877153,-0.05653539121892933,-8.93505170231055e-4,-4.473736225858626e-4,0.0011547398225101643,9.683764916736708e-4,0.026998476047003825,-0.004202734223274556,0.05366576372256843,0.05246229067021391,0.01705782403439704,0.08239167193398786
113,0.06759040449574374,8.529659547395892e-4,0.04320933636547991,-0.002207495361624611,-0.04735929540356472,-0.04951930268312395,-0.03626943005181347,-0.03626943005181347,0.03797626995985998,0.0037334321605630503,0.030938273446441202,-0.07701303485349476,0.05366576372256843,0.06423343500289301,0.028468670137413082,0.08203056284026702
192,0.0552137660707991,0.023819909182663822,0.0025725130678296735,-0.030739311891712303,-0.04735929540356472,-0.059685620198560455,-2.575913476004297e-4,-0.001223954441260153,0.0029355528201741076,0.03064230294345859,0.03038343120908879,-0.007241211738473778,0.004535763891111457,0.05246229067021391,0.025839331182732756,0.08189787601690036
320,0.0033728178018918296,0.030220946801375527,0.05504950669051148,-0.002585287076573909,-5.173794720898234e-4,-9.280868649446529e-4,-0.03626943005181347,-0.03626943005181347,0.037182391843129964,0.033464453160215374,2.34323053045999e-5,-0.004101981001190508,8.035796593568362e-4,9.123488321248996e-4,5.127176804015479e-4,0.08087060025588623
271,0.010250837964928703,0.0030174479404547158,0.045250327579943274,-0.002207495361624611,-0.006858870731013069,-0.00157926533454806,-0.03626943005181347,-0.03626943005181347,0.03797626995985998,0.03511179997764641,0.040797191262937814,-0.010658113804800761,8.035796593568362e-4,9.123488321248996e-4,5.127176804015479e-4,0.08078991552204075
190,0.0552137660707991,0.023819909182663822,0.0025725130678296735,-0.030739311891712303,-0.04735929540356472,-0.059685620198560455,-0.008222587248383258,-0.001223954441260153,0.0029355528201741076,0.03064230294345859,0.03038343120908879,-0.007241211738473778,0.004535763891111457,0.05914312839793813,0.025839331182732756,0.08061371784384176
967,0.05865331048155638,0.028743435802386925,0.0013065470093201862,-0.02965553952954661,-0.044647412663717564,-0.06344781767784821,-3.97819623109387e-4,-0.006253976768088699,0.00200776275193121,0.002365740161843144,0.0026653582327190195,-0.005879524714743535,0.05366576372256843,0.06423343500289301,0.01705782403439704,0.08041708622256133
308,0.005448273595286112,0.0030174479404547158,0.045250327579943274,-0.002207495361624611,-0.006858870731013069,-0.00157926533454806,-0.03626943005181347,-0.03626943005181347,0.03797626995985998,0.03511179997764641,0.040797191262937814,-0.006262066629303164,8.035796593568362e-4,9.123488321248996e-4,5.127176804015479e-4,0.08038339832789575
618,0.006803806606082107,0.003060752158362101,0.05392658058626178,-4.628339327050069e-4,-0.005330119050885539,-5.892257201952605e-4,-0.03626943005181347,-0.03626943005181347,0.03797626995985998,0.02505928429051126,0.036713303045351885,-0.006633578618150501,8.035796593568362e-4,9.123488321248996e-4,5.127176804015479e-4,0.08021402539274915
497,0.06486546232180129,0.019764250480642287,0.005802979789058456,-0.005975585618496799,-0.06163482075333612,-0.06163175119773668,-0.003560344166588589,-7.520847867853249e-4,0.025541406092847607,0.018190068530799287,0.005213102470059911,-0.06437744882902663,0.05366576372256843,0.05914312839793813,0.025839331182732756,0.08009345763647802
642,0.006803806606082107,0.003060752158362101,0.05392658058626178,-0.0013306641776210527,-0.010095685712086223,-0.0025823262657771527,-0.03626943005181347,-0.03626943005181347,0.03797626995985998,0.031353835120376185,0.036713303045351885,-0.005767515547684433,8.035796593568362e-4,9.123488321248996e-4,5.127176804015479e-4,0.07974814184138153
264,0.04784610871629686,0.025128702701775193,0.0025725130678296735,-0.02793812462038688,-0.0030725794632262627,-0.008944843836165168,-0.03626943005181347,-0.03626943005181347,0.00465380250992843,0.0020824814783157422,0.03038343120908879,-0.00622558536492132,0.004535763891111457,0.05914312839793813,0.021935692000360392,0.0795616305843181
177,0.05865331048155638,0.001042778855465291,0.003681481071191411,-2.1643260762863753e-4,-0.004078641714907575,-0.006141191805153655,-0.03626943005181347,-0.03626943005181347,0.04504043886387784,3.700692525679739e-4,0.002947843544379176,-0.08214332963631725,0.0388956995620617,0.06423343500289301,0.028468670137413082,0.07821527090377181
619,0.010250837964928703,5.701082333077365e-4,0.046441539673026055,-6.276798347587544e-4,-0.0027859683169199983,-4.119805668324205e-4,-0.03626943005181347,-0.03626943005181347,0.03797626995985998,0.005508348585081444,0.0024893055481045425,-0.06861762142752774,0.0388956995620617,0.05246229067021391,0.028468670137413082,0.07808096008433131
634,0.00839905428093065,0.019952186031424003,0.03514217235207109,-0.03226261872190496,-0.010095685712086223,-0.007730210208092572,-0.03626943005181347,-0.03626943005181347,0.0022863333355608623,0.02203144641219788,0.008191544193502218,-0.0037831183771739655,0.0388956995620617,0.05246229067021391,0.01705782403439704,0.0780080577494747
571,0.04784610871629686,9.016296088620152e-4,0.04159028544952831,-0.002207495361624611,-0.05000437736877153,-0.0418524375246469,-0.03626943005181347,-0.03626943005181347,0.03797626995985998,0.026651968476411044,0.03257875317358465,-0.061236263886357035,0.0388956995620617,0.05246229067021391,0.025839331182732756,0.07690290255452421
572,0.04784610871629686,9.016296088620152e-4,0.04159028544952831,-0.002207495361624611,-0.05000437736877153,-0.0418524375246469,-0.03626943005181347,-0.03626943005181347,0.03797626995985998,0.026651968476411044,0.03257875317358465,-0.061236263886357035,0.0388956995620617,0.05246229067021391,0.025839331182732756,0.07690290255452421
323,0.001990692517337546,0.0028487254701371786,0.045250327579943274,-9.240472876558501e-4,-0.0020548914224634935,-0.00157926533454806,-0.03626943005181347,-0.03626943005181347,0.03797626995985998,0.02788531243670007,0.03915639387905546,-0.0033603088279569116,8.035796593568362e-4,9.123488321248996e-4,5.127176804015479e-4,0.07687899503866555
110,0.06759040449574374,0.0017703716743194809,0.04275637406854738,-0.006354597910348127,-0.07092017074061938,-0.06667815518117301,-0.03626943005181347,-0.03626943005181347,0.033600434935660436,0.031521637468078144,0.03038343120908879,-0.05576910550061809,0.05366576372256843,0.05914312839793813,0.028468670137413082,0.07663932667297207
156,0.06187988916652537,0.023819909182663822,0.0025725130678296735,-0.030739311891712303,-0.04735929540356472,-0.059685620198560455,-2.575913476004297e-4,-0.001223954441260153,0.0029355528201741076,0.03064230294345859,0.03038343120908879,-0.011213458795715697,0.004535763891111457,0.05246229067021391,0.01705782403439704,0.075810244907049
151,0.06187988916652537,8.529659547395892e-4,0.04320933636547991,-0.006354597910348127,-0.06446188740751085,-0.06667815518117301,-0.03626943005181347,-0.03626943005181347,0.033110400310327755,0.026394688528392392,0.03257875317358465,-0.058978298571125264,0.05366576372256843,0.06423343500289301,0.028468670137413082,0.07538210318814
188,0.05865331048155638,0.023819909182663822,0.0025725130678296735,-0.030739311891712303,-0.04735929540356472,-0.059685620198560455,-2.575913476004297e-4,-0.001223954441260153,0.0029355528201741076,0.03064230294345859,0.03038343120908879,-0.00845071964573343,0.004535763891111457,0.05246229067021391,0.01705782403439704,0.07534640537206228
307,0.005448273595286112,0.0028487254701371786,0.045250327579943274,-0.0020357526035869973,-0.00804606659131246,-0.004423753199139515,-0.03626943005181347,-0.03626943005181347,0.03797626995985998,0.0354927448581854,0.03915639387905546,-0.006262066629303164,8.035796593568362e-4,9.123488321248996e-4,5.127176804015479e-4,0.07509488238738161
616,0.010250837964928703,0.0017992400343719444,0.04159028544952831,-0.0015837813012253904,-0.06532885448285926,-0.051950350775608896,-0.03626943005181347,-0.03626943005181347,0.03797626995985998,0.0339874825991819,0.03257875317358465,-0.0051935946375350345,0.0388956995620617,0.05246229067021391,0.021935692000360392,0.07488111011323598
635,0.012371133986504135,0.02807545864747244,0.04159028544952831,-0.0017243469345928706,-6.630324688771121e-4,-0.002835743147214555,-0.03626943005181347,-0.03626943005181347,0.035913203865629,4.145516186937416e-4,0.039512399408893166,-0.0077139938900828925,8.035796593568362e-4,9.123488321248996e-4,5.127176804015479e-4,0.0746297026042097
170,0.05865331048155638,8.529659547395892e-4,0.04320933636547991,-0.006354597910348127,-0.06446188740751085,-0.06667815518117301,-0.03626943005181347,-0.03626943005181347,0.033110400310327755,0.026394688528392392,0.03257875317358465,-0.04992713549177421,0.05366576372256843,0.05914312839793813,0.025839331182732756,0.07348704202288685
210,0.05159713923660419,0.023819909182663822,0.0025725130678296735,-0.02612666875046619,-0.0030725794632262627,-0.008944843836165168,-0.03626943005181347,-0.03626943005181347,0.006047768528774207,0.0020824814783157422,0.03038343120908879,-0.007079996555207424,0.004535763891111457,0.05246229067021391,0.01705782403439704,0.07279617259030684
569,0.04784610871629686,0.0017992400343719444,0.04159028544952831,-0.006354597910348127,-0.06355703199290487,-0.050744949242707164,-0.03880543076427689,-1.4343616711986784e-4,0.031069048372906412,0.03334969119119693,0.03257875317358465,-0.061236263886357035,0.0388956995620617,0.04446828235489706,0.021935692000360392,0.07269109089149031
111,0.06759040449574374,0.0017703716743194809,0.04275637406854738,-0.006354597910348127,-0.07092017074061938,-0.06667815518117301,-0.03626943005181347,-0.03626943005181347,0.033600434935660436,0.031521637468078144,0.03038343120908879,-0.053322483269231204,0.05366576372256843,0.05914312839793813,0.021935692000360392,0.07255297076730627
596,0.0440086685743907,8.217559236434543e-4,0.04159028544952831,-0.003749545525989173,-0.040499877456542474,-0.011011437740831801,-0.03626943005181347,-0.03626943005181347,0.03797626995985998,0.02066642827989537,9.13523446564866e-4,-0.05499210683062654,0.0388956995620617,0.04446828235489706,0.025839331182732756,0.07238841707595728
152,0.06187988916652537,8.529659547395892e-4,0.04320933636547991,-0.006354597910348127,-0.06446188740751085,-0.06667815518117301,-0.03626943005181347,-0.03626943005181347,0.033110400310327755,0.026394688528392392,0.03257875317358465,-0.05455680213770546,0.05366576372256843,0.05914312839793813,0.025839331182732756,0.0720839540619246
955,0.06187988916652537,0.028743435802386925,0.0013065470093201862,-0.02965553952954661,-0.044647412663717564,-0.06344781767784821,-3.97819623109387e-4,-0.006253976768088699,0.00200776275193121,0.002365740161843144,0.0026653582327190195,-0.0060461436401267115,0.05366576372256843,0.05246229067021391,0.01705782403439704,0.07170590164946805
626,0.00839905428093065,0.030252590179773563,0.0522884690543165,-0.003489992125120754,-0.002521640814549254,-0.0011535259597752333,-0.03626943005181347,-0.03626943005181347,0.031069048372906412,0.03340750791690513,2.34323053045999e-5,-0.006259747279113383,8.035796593568362e-4,9.123488321248996e-4,5.127176804015479e-4,0.07170498199983458
801,0.07222204929052405,0.02732805932970285,0.003681481071191411,-0.03226261872190496,-0.041889403776303354,-0.05653539121892933,-2.575913476004297e-4,-0.001223954441260153,0.0014299059753271595,0.001122157114769333,0.0038568327568004692,-0.04447471955757198,0.05366576372256843,0.05914312839793813,0.025839331182732756,0.07164502977798438
455,0.06759040449574374,0.0019491686725178255,0.005802979789058456,-7.636953061833417e-4,-0.04601044352023751,-0.0025823262657771527,-0.03626943005181347,-0.03626943005181347,0.03797626995985998,0.0012063214953592482,0.0057347536140021005,-0.07396010497583502,0.05366576372256843,0.06423343500289301,0.025839331182732756,0.06814299776307559
896,0.07004359333302157,0.029349384380157204,0.030217345300766172,-0.029094693522788494,-0.041889403776303354,-0.04951930268312395,-0.03626943005181347,-0.03626943005181347,0.0021434142402626814,0.0038038111856530427,0.031269404525533936,-0.05023602116670792,0.05366576372256843,0.06423343500289301,0.025839331182732756,0.06728720162103816
328,0.0011192505613117532,0.0022780471944989058,0.05286216646730484,-0.0010143365881511938,-4.0076544656097746e-4,-4.119805668324205e-4,-0.03626943005181347,-0.03626943005181347,0.03797626995985998,0.023360945591661186,0.03469600790898454,-0.01313815716971036,8.035796593568362e-4,9.123488321248996e-4,5.127176804015479e-4,0.0670172339806226
480,0.06486546232180129,0.0019491686725178255,0.005802979789058456,-7.636953061833417e-4,-0.04601044352023751,-0.0025823262657771527,-0.03626943005181347,-0.03626943005181347,0.03797626995985998,0.0012063214953592482,0.0057347536140021005,-0.07243410050820209,0.05366576372256843,0.06423343500289301,0.025839331182732756,0.06694406005676606
667,0.0033728178018918296,0.029079833630172008,0.04275637406854738,-0.0020357526035869973,-5.445148567260704e-5,-9.771936049875519e-5,-0.03626943005181347,-0.03626943005181347,0.03634653232566841,0.0013581052092732939,0.030938273446441202,-0.004511715540023492,8.035796593568362e-4,9.123488321248996e-4,5.127176804015479e-4,0.06684208356046863
215,0.05159713923660419,0.0013332833442844816,0.003681481071191411,-3.023266829575544e-4,-0.004078641714907575,-0.008944843836165168,-0.03626943005181347,-0.03626943005181347,0.03797626995985998,3.700692525679739e-4,0.0019687106741957845,-0.0732333952873696,0.0388956995620617,0.06423343500289301,0.025839331182732756,0.06679735166136447
212,0.0552137660707991,0.023819909182663822,0.0025725130678296735,-0.02612666875046619,-0.007435045782826292,-0.040542717927563324,-0.03626943005181347,-0.03626943005181347,0.006047768528774207,0.019742631072109138,0.03038343120908879,-0.007892087121354365,0.004535763891111457,0.05246229067021391,0.025839331182732756,0.06608202518948575
816,0.06759040449574374,0.0041851790301344356,0.004624516779142552,-0.028522002226389193,-0.05000437736877153,-0.05653539121892933,-8.93505170231055e-4,-4.473736225858626e-4,0.0011547398225101643,9.683764916736708e-4,0.026998476047003825,-0.004399394656304823,0.05366576372256843,0.04446828235489706,0.003031516994959803,0.0658852114754219
282,0.010250837964928703,0.0015523624446660367,0.05115951224030423,-0.0017243469345928706,-0.010095685712086223,-0.004059869989254486,-0.03626943005181347,-0.03626943005181347,0.03797626995985998,0.02519632608369118,0.03814940456628909,-0.012578531173888633,8.035796593568362e-4,9.123488321248996e-4,5.127176804015479e-4,0.06551606551817336
256,0.012371133986504135,0.0017418692794149042,0.04135146597246225,-0.02295804376436063,-0.05380549036830575,-0.04315680568847464,-0.03626943005181347,-0.03626943005181347,0.026112276118817973,0.03378820257511168,0.03257875317358465,-0.004073878291346533,0.0388956995620617,0.05246229067021391,0.021935692000360392,0.0647043051224171
254,0.012371133986504135,0.0017418692794149042,0.04135146597246225,-0.02295804376436063,-0.05380549036830575,-0.04315680568847464,-0.03626943005181347,-0.03626943005181347,0.026112276118817973,0.03378820257511168,0.03257875317358465,-0.00410428353530185,0.0388956995620617,0.05246229067021391,0.021935692000360392,0.06467389987846178
601,0.0440086685743907,0.019952186031424003,0.03514217235207109,-0.02612666875046619,-0.04869142243247283,-0.040542717927563324,-0.03626943005181347,-0.03626943005181347,0.003118434852671199,0.030066094032730667,0.008191544193502218,-0.0056342019154646105,0.0388956995620617,0.05246229067021391,0.025839331182732756,0.06414255032220434
636,0.00839905428093065,0.02807545864747244,0.04159028544952831,-0.003489992125120754,-9.487830190435471e-4,-0.00310915637117714,-0.03626943005181347,-0.03626943005181347,0.028363895428097283,7.320646585618032e-4,0.039512399408893166,-0.0049222818336560874,8.035796593568362e-4,9.123488321248996e-4,5.127176804015479e-4,0.06389273059274247
685,0.001990692517337546,0.02961451197375873,0.04275637406854738,-0.003011695501774351,-5.445148567260704e-5,-9.771936049875519e-5,-0.03626943005181347,-0.03626943005181347,0.033600434935660436,0.0013581052092732939,0.030938273446441202,-0.003342163195519176,8.035796593568362e-4,9.123488321248996e-4,5.127176804015479e-4,0.06344214867581005
149,0.06187988916652537,0.0017418692794149042,0.04275637406854738,-0.005264101239533651,-0.07092017074061938,-0.06667815518117301,-0.03626943005181347,-0.03626943005181347,0.033600434935660436,0.031521637468078144,0.03257875317358465,-0.04523387834755491,0.0388956995620617,0.05914312839793813,0.021935692000360392,0.06341831243966323
567,0.04784610871629686,0.0015783822532102342,0.007186185702081913,-0.006354597910348127,-0.06355703199290487,-0.050744949242707164,-0.03880543076427689,-2.575377547664514e-4,0.032611894109504706,0.02188131760388598,0.004726946330514812,-0.006167290716557954,0.0388956995620617,0.05246229067021391,0.021935692000360392,0.06323767856656905
827,0.06187988916652537,0.022195874063843806,0.0013065470093201862,-0.037290025671310637,-0.04735929540356472,-0.05761501910533506,-3.97819623109387e-4,-0.001223954441260153,2.2808077351014534e-4,0.0013581052092732939,0.008191544193502218,-0.0038128218232666355,0.05366576372256843,0.04446828235489706,0.01705782403439704,0.06265297445999096
860,0.075778796796166,0.029405221802589355,0.003208158620872009,-0.03801502442715246,-0.06446188740751085,-0.06255630664968871,-0.03880543076427689,-0.008707818907299807,2.2808077351014534e-4,0.02450387387154988,0.04895729349053678,-0.009383113303870174,0.0388956995620617,0.05914312839793813,0.003031516994959803,0.06122218885038491
426,0.06759040449574374,8.217559236434543e-4,0.046053075562768324,-0.003749545525989173,-0.04869142243247283,-0.05542773675629469,-0.03626943005181347,-0.03626943005181347,0.03797626995985998,0.0242219971231672,0.006009174855122403,-0.08256308780243386,0.05366576372256843,0.05914312839793813,0.028468670137413082,0.060979587557407254
824,0.06187988916652537,0.0041851790301344356,0.004624516779142552,-0.028522002226389193,-0.05000437736877153,-0.05653539121892933,-8.93505170231055e-4,-4.473736225858626e-4,0.0011547398225101643,9.683764916736708e-4,0.026998476047003825,-0.0036220535808675603,0.05366576372256843,0.04446828235489706,0.003031516994959803,0.060952037221640776
680,8.239128496918082e-4,0.004463086121232288,0.05469964022930672,-0.0015837813012253904,-2.0489733476814254e-4,-2.195901089767401e-4,-0.03626943005181347,-0.03626943005181347,0.03797626995985998,0.003664003971173486,0.03469600790898454,-0.004043967136850938,8.035796593568362e-4,9.123488321248996e-4,5.127176804015479e-4,0.059960471226683965
900,0.07004359333302157,0.028950073411547185,0.003208158620872009,-0.03757056626073347,-0.05380549036830575,-0.059685620198560455,-0.002594140837816687,-0.002945094836823865,1.9025903996862845e-4,0.004807210161633669,2.34323053045999e-5,-0.005903667231575656,0.05366576372256843,0.04446828235489706,0.01705782403439704,0.059910017250394305
941,0.06486546232180129,0.02911129794640678,0.003208158620872009,-0.03855392621509971,-0.04601044352023751,-0.059685620198560455,-6.02172327652304e-4,-0.002945094836823865,1.9025903996862845e-4,0.002623890742858709,0.04895729349053678,-0.004954181438747984,0.05366576372256843,0.006736806249459084,0.003031516994959803,0.05963901059230968
792,0.07413019134012505,0.029564252600198772,0.005802979789058456,-0.03382911955419121,-0.01164809533034895,-0.06740159999732666,-0.0012998200960552867,-0.063509263784723,5.358433473198983e-4,7.513060868777117e-4,0.03203632054116424,-0.052067752433401726,0.05366576372256843,0.06423343500289301,0.028468670137413082,0.05943311137157181
339,5.990313622287764e-4,0.0024948269006281783,0.03514217235207109,-0.0015837813012253904,-0.003382725761701972,-1.4758582026236353e-4,-0.03626943005181347,-0.03626943005181347,0.03797626995985998,0.03317094714796645,0.02756719916478869,-0.0026420755201455627,8.035796593568362e-4,9.123488321248996e-4,5.127176804015479e-4,0.05888406455246423
675,0.0026068320670265413,0.004463086121232288,0.05469964022930672,-9.240472876558501e-4,-1.3397536150945886e-4,-7.361756892790595e-5,-0.03626943005181347,-0.03626943005181347,0.03797626995985998,0.002173775686134775,0.03469600790898454,-0.007648959310239168,8.035796593568362e-4,9.123488321248996e-4,5.127176804015479e-4,0.05752479851246881
605,0.012371133986504135,0.0017992400343719444,0.04159028544952831,-0.006354597910348127,-0.06532885448285926,-0.051950350775608896,-0.03626943005181347,-0.03626943005181347,0.031069048372906412,0.0339874825991819,0.03257875317358465,-0.005820910229695545,0.0388956995620617,0.04446828235489706,0.021935692000360392,0.05670204403125774
604,0.012371133986504135,0.0017992400343719444,0.04159028544952831,-0.006354597910348127,-0.06532885448285926,-0.051950350775608896,-0.03626943005181347,-0.03626943005181347,0.031069048372906412,0.0339874825991819,0.03257875317358465,-0.005847278058428248,0.0388956995620617,0.04446828235489706,0.021935692000360392,0.05667567620252503
687,0.0011192505613117532,0.004463086121232288,0.05469964022930672,-4.628339327050069e-4,-9.998919118187073e-5,-8.48875582096831e-5,-0.03626943005181347,-0.03626943005181347,0.03797626995985998,0.0014564314132885891,0.03469600790898454,-0.007194978284837622,8.035796593568362e-4,9.123488321248996e-4,5.127176804015479e-4,0.05625778329530604
376,6.793727520251599e-5,0.0021417350511474674,0.04883513356654045,-0.0015837813012253904,-0.0016626465627965483,-5.238291144933733e-4,-0.03626943005181347,-0.03626943005181347,0.040539700677746565,0.0339874825991819,0.006350626368096557,-0.0017462045771238542,8.035796593568362e-4,9.123488321248996e-4,5.127176804015479e-4,0.05609594005053263
524,0.06187988916652537,0.028671275643658685,0.047283772556324564,-0.03020393134707975,-0.041889403776303354,-0.04951930268312395,-0.03626943005181347,-0.03626943005181347,0.00545894114024487,0.021579806117596283,0.02926410394885566,-0.06139598694790911,0.0388956995620617,0.05246229067021391,0.025839331182732756,0.0557876251301707
191,0.0552137660707991,0.023819909182663822,0.0025725130678296735,-0.030739311891712303,-0.010095685712086223,-0.051950350775608896,-0.03626943005181347,-0.03626943005181347,0.0029355528201741076,0.023650423313667943,0.03038343120908879,-0.007241211738473778,0.004535763891111457,0.05914312839793813,0.025839331182732756,0.055528398914497644
706,1.0079884843358158e-4,0.0016859511468986148,0.052122054939522905,-0.0018748532170198232,-7.406582226995468e-5,-1.4758582026236353e-4,-0.03626943005181347,-0.03626943005181347,0.03797626995985998,0.002732997260960009,0.03469600790898454,-0.0019415024570743338,8.035796593568362e-4,9.123488321248996e-4,5.127176804015479e-4,0.05496585881628951
681,0.0015018357923617463,0.0032385205659165956,0.0493128372409365,-6.928366842067793e-4,-9.487830190435471e-4,-2.83834150323083e-4,-0.03626943005181347,-0.03626943005181347,0.03797626995985998,0.0013581052092732939,0.036713303045351885,-0.003712676760492016,8.035796593568362e-4,9.123488321248996e-4,5.127176804015479e-4,0.054152527267890924
659,0.0015018357923617463,0.0032385205659165956,0.0493128372409365,-0.0015837813012253904,-0.0027859683169199983,-0.001035518488159756,-0.03626943005181347,-0.03626943005181347,0.03797626995985998,0.005508348585081444,0.036713303045351885,-0.004795572379284646,8.035796593568362e-4,9.123488321248996e-4,5.127176804015479e-4,0.053740060772174705
347,4.30130215724995e-4,0.0020759803482806862,0.04883513356654045,-6.928366842067793e-4,-1.3397536150945886e-4,-2.195901089767401e-4,-0.03626943005181347,-0.03626943005181347,0.03797626995985998,0.0029030947359681273,0.0371997579691413,-0.004373772698316901,8.035796593568362e-4,9.123488321248996e-4,5.127176804015479e-4,0.05368997801076201
487,0.06486546232180129,0.0019802910470052833,0.046053075562768324,-0.0014527038572733533,-0.05956622801474857,-0.06592113344415866,-0.03626943005181347,-0.03626943005181347,0.03797626995985998,0.03054880419970203,0.004965649264332089,-0.07961458615709749,0.05366576372256843,0.06423343500289301,0.028468670137413082,0.053663909641438516
694,5.990313622287764e-4,0.0019802910470052833,0.04387385934524594,-0.003244163368505071,-0.005330119050885539,-0.0021313286593124103,-0.03626943005181347,-0.03626943005181347,0.03546984021093993,0.02505928429051126,0.03038343120908879,-0.0029282716299900372,8.035796593568362e-4,9.123488321248996e-4,5.127176804015479e-4,0.05342164082458326
167,0.05865331048155638,8.529659547395892e-4,0.04320933636547991,-0.006354597910348127,-0.06446188740751085,-0.06667815518117301,-0.03626943005181347,-0.03626943005181347,0.033110400310327755,0.026394688528392392,0.03257875317358465,-0.04507450031218287,0.0388956995620617,0.05246229067021391,0.021935692000360392,0.052985136131874874
721,1.4765741921390907e-4,0.0019802910470052833,0.052122054939522905,-0.002585287076573909,-1.3397536150945886e-4,-2.83834150323083e-4,-0.03626943005181347,-0.03626943005181347,0.03797626995985998,0.0013581052092732939,0.03469600790898454,-0.002264585133676248,8.035796593568362e-4,9.123488321248996e-4,5.127176804015479e-4,0.05270249083003356
902,0.07004359333302157,0.02911129794640678,0.003208158620872009,-0.03855392621509971,-0.04601044352023751,-0.059685620198560455,-6.02172327652304e-4,-0.002945094836823865,1.9025903996862845e-4,0.002623890742858709,2.34323053045999e-5,-0.006245183493326373,0.05366576372256843,0.04446828235489706,0.003031516994959803,0.052323754469157366
646,0.006803806606082107,0.030028572333438936,0.0522884690543165,-3.370013001409609e-4,-6.356579513296098e-5,-8.48875582096831e-5,-0.03626943005181347,-0.03626943005181347,0.044411587923133725,4.6360763018309787e-4,2.34323053045999e-5,-0.011051943215996805,8.035796593568362e-4,9.123488321248996e-4,5.127176804015479e-4,0.052171864051234904
311,0.004312122253760042,0.029349384380157204,0.05504950669051148,-0.021659733233651803,-0.0016626465627965483,-0.0011535259597752333,-0.03626943005181347,-0.03626943005181347,0.025541406092847607,0.03604325769885158,2.34323053045999e-5,-0.004007448585366189,8.035796593568362e-4,9.123488321248996e-4,5.127176804015479e-4,0.05152554114809909
664,0.0026068320670265413,0.0032385205659165956,0.0493128372409365,-5.678591009840074e-4,-1.546465626779776e-4,-9.771936049875519e-5,-0.03626943005181347,-0.03626943005181347,0.03797626995985998,8.312276271960504e-5,0.036713303045351885,-0.007648959310239168,8.035796593568362e-4,9.123488321248996e-4,5.127176804015479e-4,0.05115148737566755
329,0.0011192505613117532,0.0016859511468986148,0.03500476612728827,-3.023266829575544e-4,-0.010853024550589325,-0.00157926533454806,-0.03626943005181347,-0.03626943005181347,0.03797626995985998,0.036103321670770676,0.02756719916478869,-0.006373159590492285,8.035796593568362e-4,9.123488321248996e-4,5.127176804015479e-4,0.05003876854058711
